tree
version=v4
num_class=1
num_tree_per_iteration=1
label_index=0
max_feature_idx=4
objective=binary sigmoid:1
feature_names=Column_0 Column_1 Column_2 Column_3 Column_4
feature_infos=[-0.34762717741021643:39.045536611632805] [-0.46194965605907035:8.6321191617104223] [-0.71284663095381651:10.966709243946076] [-5.1621695928268512:6.8393910114351781] [-0.28037013621927309:14.309814436135284]
tree_sizes=6895 6939 6951 6931 6943 6999 6937 7013 7005 6989 7071 7045 7047 7092 7080 6977 7096 7051 7034 7083 7069 6998 7085 7014 6993 7048 7091 7048 7068 7128 7106 7023 6968 6972 7065 7051 6970 7024 7005 7085 7035 7084 7091 6980 7126 7017 7012 7044 7000 7091 7010 7071 7190 7012 7065 7139 7065 7052 7171 7091 7022 7023 7036 7031 7016 7034 7015 7071 7079 7059 7142 7021 7014 7076 7074 7138 7033 7150 7205

Tree=0
num_leaves=64
num_cat=0
split_feature=1 0 0 0 0 0 1 4 0 0 0 3 3 0 3 0 0 0 0 0 0 0 0 0 0 0 3 0 0 0 0 0 0 3 3 3 0 0 0 3 3 0 3 3 0 0 0 0 0 3 0 0 3 0 0 3 0 3 0 0 0 0 3
split_gain=8.09825e+06 1.93212e+06 140487 105808 99879.2 89755.1 39685.3 24168.2 20472 19963.4 19910 18800.7 20947.3 18577.1 20127.8 17377.4 11593.5 10273.3 10103.8 9031.17 6788.29 29833.1 12058.3 36362.8 6293.53 5879.37 5593.41 4443.8 13477.4 7751.02 4328.5 8058.65 4024.53 3831.97 3892.82 3631.75 3706.91 3588.45 6133.03 3492.05 3462.12 3237.81 2980.88 3970.35 2777.54 3691.03 2745.61 2455.06 3538.43 2354.14 5218.48 3586.97 2471.95 2350.23 3627.23 3223.03 3194.41 6447.02 3291.55 6772.69 3116.38 6449.89 3159.7
threshold=1.0000000180025095e-35 0.19022814294065857 -0.33771334067045017 1.084690136724648 0.0137976084242818 -0.33760739694548114 1.4867793763201067 1.0000000180025095e-35 0.36299451851640013 -0.21980664185541107 -0.32955758260838225 -2.4598749714427552 1.0000000180025095e-35 0.27406319051154243 -2.4598749740297845 0.2083496700569121 -0.31847210756608635 -0.34732789277476356 -0.33664561208559113 -0.025645605601205851 -0.34712590482832667 -0.34732789277476356 -0.3466984627034696 -0.34660480318021353 -0.34002372246782292 2.3721693732038984 -2.4598749740303369 -0.31497570412886 -0.29005171514626243 -0.32016717710636883 -0.20832950017130544 -0.083808615421641239 0.081984782345871185 -2.4598749740351074 -2.4598749740343737 -2.4598749740365213 -0.3224176608957155 -0.33862712596402211 -0.33730802213236483 -2.4598749740060724 -2.4598749740327137 -0.30404401707187512 -2.4598749736196655 -2.4598749734331902 -0.14083951481536877 -0.13459592400852199 -0.34203629754144987 -0.13158401008803919 -0.12505751692127029 -2.4598749737948107 -0.32955758260838225 -0.33266329131861633 -2.4598749740311487 -0.30147931923390076 -0.29458502644692103 -2.4598749739579309 -0.32016717710636883 -2.4598749714427552 -0.33052811971149926 -0.32379598139305271 -0.33182699368731772 -0.32853440178927845 -2.4598749739864441
decision_type=2 2 2 2 2 2 2 2 2 2 2 2 2 2 2 2 2 2 2 2 2 2 2 2 2 2 2 2 2 2 2 2 2 2 2 2 2 2 2 2 2 2 2 2 2 2 2 2 2 2 2 2 2 2 2 2 2 2 2 2 2 2 2
left_child=1 2 20 8 5 -4 7 11 -3 10 -7 16 -13 14 18 24 33 -16 40 -11 21 -1 -22 -24 -14 -5 -18 29 41 -12 -26 44 -6 35 -35 -2 -37 39 -39 -36 46 -29 -28 -44 -32 -46 -9 -47 -49 52 51 -51 -40 55 -55 60 57 -57 -59 -60 -19 62 -62
right_child=6 3 4 25 32 9 -8 13 -10 19 27 12 15 -15 17 -17 26 53 -20 -21 22 -23 23 -25 30 -27 42 28 -30 -31 31 -33 -34 34 37 36 -38 38 49 -41 -42 -43 43 -45 45 47 -48 48 -50 50 -52 -53 -54 54 -56 56 -58 58 59 -61 61 -63 -64
leaf_value=-4.00034884740798 -1.7033327827459734 -2.2964220789944414 -1.6069834214978242 -1.4327930380157636 -2.8674075414371298 -3.4498701620956687 -1.140940785426876 -4.5017779756401382 -1.8663332966210167 -3.4432006904886854 -3.2188104649719729 -1.1606321453706219 -3.192366076460365 -1.20712879669327 -3.7836545606435408 -1.1827410941413046 -1.1713828050126835 -1.6111403941455618 -1.1326298556319983 -3.1722387270180397 -4.2760674960357647 -2.7561997827396763 -2.4114170030410489 -3.7360196778615684 -1.4685332044129837 -1.1835054494653594 -1.4871711369489677 -3.1306997102397607 -3.2588979863249694 -3.5188034575870204 -1.942043360439039 -1.5473260278208785 -2.6598594716867252 -0.85683847427955406 -2.2697089401779285 -4.5017767554133004 -1.4864538645263474 -1.0095112864366467 -2.3656037540803689 -1.7264726807853386 -1.7102563151844672 -2.9604670805348521 -1.5801461639966004 -4.5017871894679011 -4.5017763156827497 -1.2044741754127504 -2.5124864054249523 -4.5017740643733184 -2.3766710182920847 -3.1620480660691599 -4.5017731075643939 -1.0106292862741304 -1.6087199756716188 -2.4889904848480278 -1.7472445781570745 -1.3798185610243592 -1.1959303640551502 -1.8162611764026022 -3.8672511840481851 -1.6935810650915051 -4.5017762884602988 -1.8993195153505829 -1.8667201823071702
leaf_weight=102.5834846496582 4.5952472630888224 429.55403900146484 76.999753475189209 494.43939590454102 464.22331619262695 1108.3978781700134 4587.7247722698376 2.3706174809485674 777.46107864379883 3069.3864364624023 818.56905746459961 2724.9809739859775 6.547243212349712 391.61713027954102 5.9690605029463759 343.53737163543701 238.11149103194475 105.28564476966858 244.27865143306553 341.75557121727616 94.957527160644531 90.858821868896484 53.315948486328125 1836.0613799095154 214.80308485776186 453.41860961914062 238.88177588675171 537.73845672607422 2003.7897481918335 292.16788053512573 58.61080276966095 145.08667930774391 470.09498596191406 12.93620043992996 49.9309958294034 3.6015144689008594 1.4215776510536651 35.595490819774568 12.039795150980352 72.592467253096402 10.748838366940616 581.24336576461792 2.9343298804014921 1.9261108189821232 2.1882629394531241 3.9000179767608669 6.4643891118466872 2.1312805414199856 24.204930938780308 3.1995396167039862 2.4276118185371152 4.9112950265407553 103.71589683648199 17.036998242139816 505.75470848474652 100.23052752763033 67.425552241504192 35.115534026175737 6.7554687261581421 7.6321555711328966 3.7838712297379971 54.354377336800098 1.6267257966101158
leaf_count=7984 149 18964 2350 13388 25734 74205 97756 208 27714 205085 51063 59125 405 8857 439 7604 5217 3222 5165 21005 7908 4837 2475 133306 5968 10043 6725 32608 126586 19958 2177 4257 24131 203 2178 316 40 666 548 2387 350 33290 88 169 192 88 313 187 1107 196 213 92 3169 817 16838 2609 1510 1217 508 246 332 1973 58
internal_value=-2.3046 -3.08693 -3.33558 -1.70891 -3.25459 -3.30661 -1.25116 -1.33714 -2.01939 -3.32156 -3.26122 -1.27607 -1.22671 -1.50536 -1.60478 -1.45149 -1.49673 -1.71616 -1.22023 -3.41605 -3.69871 -3.41598 -3.72627 -3.69864 -1.6533 -1.31354 -1.34374 -3.21183 -3.18128 -3.29772 -1.63095 -1.77871 -2.76298 -1.73689 -1.70512 -2.71913 -3.64841 -1.7437 -1.5892 -1.94785 -2.31298 -3.04227 -1.51211 -2.73794 -2.14746 -2.51878 -3.04626 -2.37527 -2.54865 -1.75258 -2.46803 -1.85932 -1.68744 -1.70252 -1.77142 -1.60829 -1.48171 -1.61039 -2.07724 -2.71419 -1.77483 -2.0632 -3.70953
internal_weight=24566 14097 11942.1 2154.87 9764.37 8830.05 10469 5881.26 1207.02 8753.05 5341.91 4314.81 3525.99 1566.45 1174.83 801.01 788.821 910.971 263.862 3411.14 2177.78 193.442 1984.33 1889.38 457.472 947.858 481.854 4233.51 3122.77 1110.74 450.925 236.122 934.318 306.968 297.349 9.61834 5.02309 284.413 161.89 122.523 19.5838 1118.98 243.742 4.86044 91.0353 32.4245 8.83501 30.2362 26.3362 126.294 10.5384 8.11083 115.756 905.002 522.792 382.21 217.159 149.734 49.5032 14.3876 165.051 59.765 5.4106
internal_count=1088518 842634 772525 70109 616015 566150 245884 148128 46678 563800 337710 103466 81110 44662 35805 21985 22356 29769 6036 226090 156510 12821 143689 135781 14381 23431 12199 263505 192484 71021 13976 8008 49865 10157 9652 505 356 9449 4884 4565 871 65898 6982 257 3751 1574 521 1382 1294 4218 501 288 3717 29330 17655 11675 6090 4580 1971 754 5585 2363 390
is_linear=0
shrinkage=1


Tree=1
num_leaves=64
num_cat=0
split_feature=1 0 2 2 0 0 2 0 2 0 0 0 0 0 2 2 2 0 0 2 0 2 2 2 0 0 0 1 0 0 2 0 0 0 0 0 0 0 0 4 0 0 0 0 0 0 2 0 0 2 0 0 0 0 0 0 0 0 0 0 0 0 0
split_gain=265884 140185 161578 113217 95312.5 86463.9 43723.3 20395.5 15088.9 14277.8 10485 23968.9 38311 8467.15 7087.69 6046.68 5811.15 4987.45 4952.02 4355.18 4286.8 3664.24 3577.69 2979.13 2632.26 3092.98 2538.94 2487.92 2452.27 2344.83 2128.24 1799.97 1692.01 1959.99 1901.05 1863.06 1893.35 1618.64 1594.84 1536.78 1511.35 2141.14 1507.65 1441.16 1969.09 1317.22 1299.94 2841.71 1293.57 1290.27 1434.97 1242 1249.05 1207.82 2796.76 1787.4 1173.1 1171.88 2067.4 1528.98 1561.41 1193.8 1162.23
threshold=1.0000000180025095e-35 0.19022814294065857 0.85940127528270771 -0.48823978720574163 -0.29311624773338113 -0.31398354943586076 0.41018758778655784 -0.32853440178927845 0.41018758778655784 1.084690136724648 -0.34660480318021353 -0.33771334067045017 -0.33760739694548114 -0.3290535495880163 0.41018758778655784 1.0000000180025095e-35 1.7578286502750071 -0.26653514899695246 0.062781664333934908 1.3086149627788575 -0.32630416288538117 1.7578286502750071 1.3086149627788575 0.41018758778655784 -0.24723058612348045 0.10398945984863132 -0.34530451642100074 1.4867793763201067 0.36299451851640013 0.07243537859354611 2.6562560252673069 -0.34751282211319351 -0.26824299871609703 -0.079402394508035698 -0.28534543807719431 -0.056559395386418986 -0.036119390522560878 -0.24915968173008327 -0.27362185085856017 1.0000000180025095e-35 -0.34552314715621829 -0.34254654781072519 0.25022192465529114 -0.12505751692127029 -0.14083951481536877 -0.15899248888682307 0.41018758778655784 -0.32689175052082409 -0.26824299871609703 1.0000000180025095e-35 -0.34573955851894045 -0.1441050433946261 -0.18141710372889142 -0.33760739694548114 -0.3408024667103457 -0.33730802213236483 -0.3408024667103457 -0.1441050433946261 -0.17062674010017767 -0.019966416750549321 -0.041220174829838065 -0.12162235914715204 -0.34442026431221584
decision_type=2 2 2 2 2 2 2 2 2 2 2 2 2 2 2 2 2 2 2 2 2 2 2 2 2 2 2 2 2 2 2 2 2 2 2 2 2 2 2 2 2 2 2 2 2 2 2 2 2 2 2 2 2 2 2 2 2 2 2 2 2 2 2
left_child=1 2 3 4 20 10 15 19 9 28 -5 14 -13 23 26 18 27 48 32 53 -1 -10 45 -14 37 57 49 39 -3 -20 31 -21 34 43 -7 -35 -37 -6 -8 -2 -16 -42 -41 44 51 -9 -15 -48 -17 50 -12 52 -34 54 -4 -55 -43 58 -26 60 61 -59 -28
right_child=16 8 7 5 24 6 38 22 21 -11 11 12 13 46 40 17 -18 -19 29 30 -22 -23 -24 -25 25 -27 62 -29 -30 -31 -32 -33 33 35 -36 36 -38 -39 -40 42 41 56 -44 -45 -46 -47 47 -49 -50 -51 -52 -53 -54 55 -56 -57 -58 59 -60 -61 -62 -63 -64
leaf_value=0.15895248858926225 0.15091484444112779 0.29173416261761848 0.65623263170818957 0.4208085765168309 0.38472974878879962 0.49251716616690927 0.29425859434473728 0.14851344012064147 0.12452812055589504 0.16287019819576115 1.0296853528618495 0.19058989996487075 0.88514921249192047 0.665929483401142 -0.051192446588469692 0.4904405959807317 -0.0099762647148226857 0.37392852442430069 -0.052857522016016914 1.3384764997260079 0.23210044337694602 0.022171068097967931 0.016895993443260909 0.6071030561317674 0.46054680093663997 0.3378272441066108 1.2245073178099255 0.14211135964671223 0.23146572313375416 0.38389614490005736 0.46907576791294625 0.11848555641756037 0.55653586643722719 0.29269919949859452 0.3573861419227527 0.6556567113938061 0.45755145394144847 0.058149049304517877 0.19204210078686915 0.17559091853871994 0.87412335473093161 -0.051192108362656558 0.14571178785330949 0.63048136518714915 0.34824861052478129 0.055989965130057766 -0.052000125316002836 0.58790087305593397 0.77554378146954361 0.4668069188570807 0.48296471011288489 0.8015958857337715 0.45889781736146473 1.3751785069977538 0.1857438174289768 0.6301874587333004 0.53671243594193196 0.58759364701104133 0.31916393306254676 0.44893336870195838 0.65958509855004444 0.46883680444994397 1.0294918318150188
leaf_weight=6497.0806024074554 64044.602156410925 2311.595108486712 78.683617055416107 325.38674449920654 1472.2208671569824 1054.1715393066406 482.42336177825928 898.1416540145874 3569.3773772716522 11764.148597717285 47.589213132858276 393.39255428314209 745.85673141479492 985.30085444450378 9.2823009490966779 995.23164749145508 578.01877239346504 2877.4000625610352 32.216588973999023 3.0851714611053458 2895.6174058914185 1158.0262553915381 3230.4155103573576 110.6266622543335 1506.113920211792 525.78403472900391 90.72346019744873 73252.160532265902 6254.8632202148438 666.49879837036133 74.071931666694582 150.93274903297424 1606.5232019424438 136.95025062561035 345.59626770019531 145.4586009979248 705.97997730784118 38.944644927978516 1826.0287866592407 14225.552287389524 41.69239068031311 11.966884732246394 6003.6185035705566 427.34472942352295 139.3652229309082 672.86349940206856 19.268914699554443 174.19971060752869 41.442401885986328 24.825403690338135 16.04970908164978 45.216721534729004 411.44159412384033 9.0130710601806623 52.769407987594604 75.440198176540434 29.164657235145572 301.77652359008789 312.15668869018555 1170.3973877429962 192.82386016845703 708.33082962036133 483.91071605682373
leaf_count=202057 101748 11985 1641 4194 27299 13420 8477 22017 14446 17449 1075 879 10714 14460 408 13868 3432 55055 633 90 59739 7846 84347 2237 31286 4537 1700 97867 18156 5344 1926 4931 28603 3631 6901 2813 9097 1008 42097 34088 1070 526 8967 8477 3542 16182 521 2887 485 837 536 744 9557 48 581 1434 943 6242 8113 12196 3186 16314 10933
internal_value=0.182558 0.270887 0.333659 0.376993 0.282077 0.472971 0.408841 0.076976 0.179916 0.198626 0.691157 0.718787 0.642286 0.729594 0.964805 0.455687 0.148271 0.407806 0.488469 0.401198 0.181503 0.0994547 0.0469946 0.849236 0.433743 0.45214 1.02189 0.148851 0.247729 0.363758 0.248841 0.142923 0.505833 0.523892 0.459154 0.463864 0.491395 0.376313 0.213403 0.15471 0.553812 0.621616 0.166723 0.546452 0.530148 0.108886 0.642663 0.524169 0.501838 0.772538 0.891803 0.542436 0.536629 0.562153 0.467364 0.709695 0.365666 0.466479 0.436275 0.489619 0.529205 0.504316 1.06028
internal_weight=219477 61373.2 36315.2 31069.8 15621.2 15448.5 11939.3 5245.42 25058 20330.6 3509.24 3183.85 2428.65 2035.25 755.205 9630.84 158104 3914.07 5716.76 443.996 9392.7 4727.4 4801.42 856.483 6228.55 4717.38 663.099 157526 8566.46 698.715 228.09 154.018 5018.05 3618.28 1399.77 988.389 851.439 1511.17 2308.45 84273.8 92.1062 82.8239 20229.2 2629.89 2202.55 1571.01 1178.77 193.469 1036.67 88.4643 63.6389 2063.18 2017.96 215.906 131.453 84.4533 41.1315 4191.6 1818.27 2373.33 1202.93 1010.11 574.634
internal_count=1087822 841720 771838 638641 371977 266664 212744 133197 69882 47590 53920 49726 31698 30819 18028 162170 246102 69408 92762 10651 261796 22292 122546 12951 110181 81874 15081 242670 30141 5977 6947 5021 86785 66464 20321 15541 11910 28307 50574 144803 2947 2539 43055 50923 42446 38199 17868 3408 14353 2448 1611 38904 38160 3704 2222 1482 1469 77337 39399 37938 25742 22556 12633
is_linear=0
shrinkage=0.05


Tree=2
num_leaves=64
num_cat=0
split_feature=1 2 0 2 0 0 2 0 2 0 2 0 0 0 0 0 2 2 2 0 0 0 0 0 1 3 0 2 3 0 3 2 2 0 0 0 2 0 0 0 0 0 0 0 0 0 0 0 0 2 2 0 1 0 0 0 0 2 2 0 0 0 0
split_gain=94417.2 64936.6 41616.9 27425 34817.7 18058.1 15771 10031.6 4171.14 3895.08 3563.22 2263.39 1476.04 2003.52 2087.09 1436.28 1359.86 1340.62 1339.24 1283.43 1042.98 965.734 979.948 1714.73 944.33 1327.82 2447.68 1945.71 1800.28 1684.47 1248.47 1058.78 943.199 1148.73 874.822 952.002 939.665 747.913 744.923 736.549 707.95 772.96 5199.31 705.558 701.82 701.004 672.839 653.62 650.947 705.191 648.197 693.464 642.732 635.174 626.828 602.029 581.479 575.291 629.47 572.128 614.485 571.647 544.061
threshold=1.0000000180025095e-35 0.85940127528270771 0.36299451851640013 -0.48823978720574163 -0.30755394214875204 -0.30526258783837179 0.41018758778655784 -0.3251058319944638 1.3086149627788575 1.084690136724648 1.7578286502750071 -0.32311011012416579 0.17450466033041298 -0.26091881397773592 -0.264699592676721 -0.31297229210781591 0.41018758778655784 0.41018758778655784 1.3086149627788575 -0.14083951481536877 -0.27707360633262745 -0.23704344593508161 -0.24915968173008327 -0.24519377830773056 1.4867793763201067 1.0000000180025095e-35 0.17450466033041298 0.85940127528270771 -2.4598749714427552 -0.34156350607160674 -2.4598749740287364 -0.48823978720574163 -1.0000000180025095e-35 -0.11807573677111223 0.12963224997689385 -0.25521866383019226 1.7578286502750071 0.68158554544536021 -0.32379598139305271 -0.30640863071408603 -0.34616959575655748 -0.33771334067045017 -0.33760739694548114 -0.096046846565709845 -0.33946712087952308 0.30104709283121961 -0.31398354943586076 -0.34530451642100074 0.25022192465529114 2.2070423377711568 0.85940127528270771 -0.30526258783837179 2.7859320645728913 -0.34508858099594691 -0.32630416288538117 -0.32744658863481613 -0.23493936057251144 6.6991792127326546 7.1483929002288038 -0.23910232723890135 -0.2432503194032847 -0.25123177406160163 0.15807098854136417
decision_type=2 2 2 2 2 2 2 2 2 2 2 2 2 2 2 2 2 2 2 2 2 2 2 2 2 2 2 2 2 2 2 2 2 2 2 2 2 2 2 2 2 2 2 2 2 2 2 2 2 2 2 2 2 2 2 2 2 2 2 2 2 2 2
left_child=1 2 3 4 11 17 19 18 37 16 24 38 13 14 20 -13 -4 40 -3 21 -6 22 61 -24 25 28 27 29 30 -27 46 -32 -21 -34 35 -10 -36 -9 54 -19 -5 44 -43 -35 47 -8 -2 -42 49 62 -33 -52 -12 -49 -1 -44 -23 -37 -59 60 -25 -7 -38
right_child=10 7 9 5 12 6 45 8 34 -11 52 15 -14 -15 -16 -17 -18 39 -20 32 -22 56 23 59 -26 26 -28 -29 -30 -31 31 50 33 43 36 57 48 -39 -40 -41 41 42 55 -45 -46 -47 -48 53 -50 -51 51 -53 -54 -55 -56 -57 -58 58 -60 -61 -62 -63 -64
leaf_value=0.11472963685331417 0.1533377627560536 0.3067661982681047 0.18904212806282061 0.28583540591914913 0.21921669662802554 0.26988869339293048 0.14163443206077983 0.083476360407408162 0.052829489019026267 0.13970688465950623 -0.0070178234574991049 0.20727906336469504 0.20554562811833291 0.2758277972031617 0.020081851757077725 0.10618210778319284 0.11237103365044294 0.27273988321895803 0.17060078356644193 0.26537341776280948 0.2956010708146074 0.39865247059804526 0.059624446601327041 0.17728162005750164 0.12636385487268495 0.33655599592506424 0.12801180959805419 0.054088548006461047 0.12466190383556862 0.16275437135681348 0.1330107399374823 0.16812585695057483 0.10846247707710557 0.32618881426939428 0.093568247554127126 -0.011011617463544619 -0.053558772520428656 0.1387885954915313 -0.013159988044806248 0.52616443214919817 0.46681540094317414 0.16827710933973927 0.37534248657467856 0.22929775832194146 0.44047226687952179 -0.055698095731002664 0.12259191414665241 0.15579793336163006 0.0063360897214282969 0.028144633584782933 0.15086154700668691 0.020693621973163066 0.17442664105356553 0.35645559631075951 0.17062565982164754 0.3379166909047458 0.29548478055179533 0.73002092883260139 -0.051934871843041866 0.14235406979980561 0.32907488330300638 0.37244730149454025 0.25021808236310739
leaf_weight=7432.6105048656464 2284.9582319259644 403.30907111242414 7563.6938743591309 477.86010527610779 2124.8402481079102 3737.3705368041992 2821.0367469787598 2069.64650716912 857.44038271903992 13893.035949707031 553.49427556898445 1271.4728622436523 1291.6534118652344 7449.8277170658112 117.5908203125 485.45612239837646 626.20248413085938 905.77111065387726 326.97926683351398 4448.5986633300781 565.91836547851562 142.29991245269775 152.06954193115234 93.001655578613281 79423.335291132331 141.2637432217598 11366.841011047363 410.23690629005432 45562.284030391835 10626.61474121362 4167.10009765625 7091.5139748891816 186.61906814575195 203.84383392333984 779.0727928802371 2194.7920466884971 17.859440766274929 867.24158668518066 108.89978504180908 29.608299136161804 132.03453826904297 409.29151117801666 1947.1968239545822 2400.8293684758246 355.8997608423233 45.734844207763672 8042.6667836084962 40.852090835571289 1034.7858500480652 155.78876511752605 301.1328766644001 154.97714039683342 53.527007639408112 1139.8290004730225 537.85961818695068 2397.582328915596 3397.7274150848389 5.4824068602174503 4.8508235234767199 87.69966983795166 235.50396728515625 140.99578857421875 84.368520259857178
leaf_count=202158 4862 4185 18198 4312 27338 38065 50253 40231 20316 19604 3387 24340 5864 88432 2155 8283 2818 11020 7925 37290 7289 1264 2426 1245 97950 474 15864 2025 59330 24120 11802 13896 3806 3280 3862 60562 288 1836 2297 227 1628 741 12411 21772 2592 498 10930 419 6750 1902 697 749 39 9697 9391 19924 47345 82 141 1241 2467 1340 608
internal_value=0.150803 0.19628 0.212506 0.238958 0.197043 0.273529 0.246069 0.0683404 0.052284 0.15583 0.129906 0.127912 0.255918 0.262261 0.226271 0.179345 0.18318 0.336935 0.2458 0.266325 0.235282 0.280146 0.264632 0.203313 0.130339 0.133841 0.144349 0.160963 0.130337 0.165034 0.142068 0.153241 0.251078 0.228295 0.0250995 0.008124 0.050192 0.0998097 0.116727 0.280762 0.344549 0.348917 0.338641 0.236881 0.378195 0.138486 0.129394 0.361311 0.0240525 0.0951048 0.16441 0.106633 0.00898191 0.349513 0.118502 0.35469 0.299632 -0.00925928 0.36294 0.255812 0.286101 0.273617 0.197148
internal_weight=248380 78199.9 69398.3 47315.4 21386.1 25929.3 18093.3 8801.62 8071.33 22082.9 170180 9836.3 11549.8 10258.2 2808.35 1756.93 8189.9 7835.93 730.288 15226.6 2690.76 7986.67 4446.64 568.275 169573 90149.6 22545 11178.1 67604.6 10767.9 22042.3 11714.7 7239.89 2791.29 5134.44 3062.57 2071.88 2936.89 8079.37 935.379 6900.55 6422.69 4754.07 2604.67 1668.62 2866.77 10327.6 1312.72 1292.8 258.017 7547.62 456.11 607.021 1180.68 7970.47 4344.78 3540.03 2205.13 10.3332 416.205 328.506 3878.37 102.228
internal_count=1088243 842118 693430 652810 377547 275263 212292 148688 136578 40620 246125 246469 131078 125214 36782 32623 21016 62971 12110 161541 34627 95393 46784 7379 242699 144749 42483 26619 102266 24594 42936 27144 66148 28858 94511 81101 13410 42067 213846 11247 51724 47412 33076 25052 14336 50751 15792 11744 9548 2798 15342 1446 3426 10116 211549 32335 48609 60785 223 4953 3712 39405 896
is_linear=0
shrinkage=0.05


Tree=3
num_leaves=64
num_cat=0
split_feature=1 0 0 1 3 0 3 3 0 0 3 4 0 0 0 0 0 3 3 3 0 0 0 0 0 0 0 0 0 3 0 0 0 0 0 0 0 0 0 0 0 0 0 0 3 0 0 3 0 4 0 3 3 3 0 0 0 0 0 0 0 0 0
split_gain=44613.8 15209.9 1223.12 657.308 654.649 1416.4 1202.15 648.174 646.28 693.407 482.546 1149.27 464.597 778.294 480.025 456.578 443.441 520.05 448.758 1020.77 392.677 390.762 757.804 589.336 369.331 847.391 608.586 351.58 304.775 286.163 279.878 413.242 269.997 367.407 266.364 289.592 339.513 306.994 572.209 511.569 376.535 254.712 947.05 248.399 300.416 360.715 238.104 236.494 300.855 378.103 245.608 528.085 403.445 399.31 499.174 311.681 275.332 393.855 363.692 353.976 235.815 229.432 576.849
threshold=1.0000000180025095e-35 0.36299451851640013 1.084690136724648 1.4867793763201067 1.0000000180025095e-35 0.25022192465529114 -2.4598749714427552 -2.4598749740262247 0.036197098767332785 -0.32094502959199728 -2.4598749724358986 1.0000000180025095e-35 -0.264699592676721 -0.24519377830773056 -0.18386575293371774 -0.34417856813463016 -0.33629267174037242 -2.4598749740268206 -2.4598749740355781 -2.4598749740359191 -0.32170305301140217 -0.15320295764516823 -0.15899248888682307 -0.14728463767046482 -0.11448556359348565 -0.11097759737585415 -0.13459592400852199 -0.34751282211319351 -0.24519377830773056 -2.4598749740301815 -0.3224176608957155 -0.31087767539991035 -0.22427134799364837 -0.22847315117377356 -0.3193129341200393 -0.27707360633262745 -0.27362185085856017 -0.28534543807719431 -0.28368883432025277 -0.29005171514626243 -0.29164616645359093 -0.083808615421641239 -0.079402394508035698 -0.33697392891881173 -2.4598749740341712 -0.338915398904791 0.044609171808209121 -2.4598749740234456 -0.3422879483311087 1.0000000180025095e-35 -0.33629267174037242 -2.4598749740210692 -2.4598749733476346 -2.4598749734992973 -0.3002026540126474 -0.34347427056317376 -0.3338990910287063 -0.30755394214875204 -0.29458502644692103 -0.12845936406847605 -0.33597002608021015 -0.34573955851894045 -0.34442026431221584
decision_type=2 2 2 2 2 2 2 2 2 2 2 2 2 2 2 2 2 2 2 2 2 2 2 2 2 2 2 2 2 2 2 2 2 2 2 2 2 2 2 2 2 2 2 2 2 2 2 2 2 2 2 2 2 2 2 2 2 2 2 2 2 2 2
left_child=1 8 -3 4 6 15 7 16 9 20 47 -12 34 -14 32 -6 18 -18 19 -2 27 22 -16 -23 26 -26 -25 -1 30 43 -17 -32 33 -15 -11 37 -37 39 -39 40 -36 -27 -43 44 -20 -46 -10 48 49 -9 52 56 -49 -53 -55 -54 -52 -58 -59 -60 -50 -29 -63
right_child=3 2 -4 -5 5 -7 -8 10 46 12 11 -13 13 14 21 28 17 -19 29 -21 -22 23 -24 24 25 41 -28 61 -30 -31 31 -33 -34 -35 35 36 -38 38 -40 -41 -42 42 -44 -45 45 -47 -48 50 60 -51 51 53 55 54 -56 -57 57 58 59 -61 -62 62 -64
leaf_value=0.25039429047369222 0.13922211608796459 0.14096243332199732 0.11891074131941458 0.11340345168782295 0.28947298477919553 0.11358876614230112 0.11247882184520229 0.30326893719477277 0.12128791831720638 0.21888389938951019 0.40447985209305193 0.10318627499980251 0.14905621286343634 0.18477050239719131 0.16613798546998559 0.1464611350116018 0.11617401624518575 -0.010648915019880622 0.082100270858223273 0.56657680867265936 0.10898623270757411 0.23102790154003233 0.090101769936701756 0.18502830009206164 0.26360708344035327 0.15848028761909067 0.13358925992125095 0.15152206703201956 0.14257376603362518 0.10123594519203585 0.081719165110625158 0.12727207088848322 0.19595830413146142 0.13969525861564222 0.18294252865499785 0.23296683054201869 0.18866998032529861 0.088972216347199928 0.17440068633273634 0.21977112415433653 0.13251888595338016 0.27061792854869965 0.17609720928497311 0.23928603992248956 0.20280263183838773 0.11260562218848202 0.16244357031081003 0.1236928057824947 0.068978321012438878 0.15239041321508709 0.18413603962209282 0.13633837226172535 0.087408548146281462 0.15185938075471006 0.27650037930186128 -0.066231439390214392 -0.062287191560852245 0.1834838734511918 -0.018317116807832049 0.11883286787539504 0.15131071882045433 0.20322639384105423 0.16652299361424808
leaf_weight=127.70982360839844 43.142484412528574 10319.133850097656 16097.588928222656 83755.151787877083 49.21344805881381 11563.880004882812 48508.001505265012 71.390063162893057 364.48876953125 597.62960815429688 54.729748609475791 75.055723313242197 2665.8292770385742 2461.1792907714844 2054.3980560302734 1324.4347910881042 11458.641500057653 81.407376522198319 135.18721623532474 20.666417728178203 289.04300689697266 468.13130950927734 389.87039947509766 1025.5328674316406 284.11830902099609 1680.9262924194336 1308.9096450805664 2080.1195755004883 8550.127251572907 312.61179710738361 600.40934991836548 2915.0742373466492 4352.0576095581055 553.79829406738281 7717.2829132080078 613.31121826171875 1467.7859420776367 240.82101440429688 1053.5287780761719 925.00820922851562 388.89163208007812 278.05364227294922 5648.3454179670662 84.429042670875788 277.97238913550973 184.36419335007668 9814.513671875 3312.6670587919652 95.298585891723633 99.254113558679819 51.898491978645325 6407.8390870960429 111.91914731264114 271.59280787408352 114.06570039875805 46.818502495065331 54.546704202890396 69.35905385017395 95.082820162177086 93.121216313913465 995.14067821577191 1153.9313659667969 14807.243202209473
leaf_count=3859 260 27684 23355 97845 200 14903 59253 155 3265 7076 142 141 34752 27653 32258 3113 15183 427 355 85 3482 7088 6997 14768 3556 25044 21048 34101 19370 1070 1342 5648 59732 6759 78545 6645 16836 3470 13201 10144 3519 3589 68766 65 871 213 55506 7423 309 199 54 12943 309 432 218 268 382 108 492 194 1733 22407 217022
internal_value=0.130969 0.159503 0.127525 0.116657 0.119434 0.126418 0.117046 0.126045 0.172537 0.174692 0.134351 0.23024 0.178716 0.174471 0.177775 0.137457 0.11812 0.115279 0.149095 0.277634 0.166806 0.172046 0.15401 0.176169 0.173658 0.178826 0.156187 0.167726 0.136898 0.140849 0.126872 0.119492 0.187991 0.176491 0.18628 0.184709 0.201725 0.181279 0.158506 0.184543 0.180523 0.175659 0.180532 0.159007 0.147664 0.166835 0.16097 0.133304 0.153776 0.215511 0.130875 0.136168 0.119962 0.139312 0.188724 0.0420936 0.0774963 0.059764 0.085612 0.0495431 0.144115 0.167141 0.169177
internal_weight=273114 91229.2 26416.7 181884 98129.3 25003.1 73126.2 24618.2 64812.5 54633.5 12019.8 129.785 36175.4 23171.2 20505.3 13439.3 12598.4 11540 1058.37 63.8089 18458 13138.3 2444.27 10694 10225.9 7891.44 2334.44 18169 13390 994.565 4839.92 3515.48 7367.04 3014.98 13004.3 12406.6 2081.1 10325.5 1294.35 9031.18 8106.17 7607.33 5926.4 681.953 597.524 462.337 10179 11890 1261.08 170.644 10628.9 7157.51 3471.4 6793.5 385.659 158.738 364.008 312.11 257.563 188.204 1090.44 18041.3 15961.2
internal_count=1087832 842127 51039 245705 147860 44576 103284 44031 791088 732317 25502 283 451446 312010 277258 29673 18529 15610 2919 345 280871 183114 39255 143859 136771 100955 35816 277389 29473 2574 10103 6990 94144 34412 139436 132360 23481 108879 16671 92208 82064 97399 72355 1504 1439 1084 58771 25219 2396 354 22823 14823 8000 13593 650 577 1230 1176 794 686 2042 273530 239429
is_linear=0
shrinkage=0.05


Tree=4
num_leaves=64
num_cat=0
split_feature=2 4 0 2 0 2 0 3 3 3 2 2 0 2 0 0 0 0 0 0 0 0 3 0 0 0 0 3 3 4 0 0 3 3 0 0 0 0 0 0 0 0 2 0 0 0 0 3 0 0 3 0 0 2 0 0 2 2 0 0 0 2 2
split_gain=30113.2 4058.26 4311.29 3547.36 11584.6 4653.04 3260.04 2908.5 1576.83 1537.09 1361.4 1299.12 1141.09 883.248 827.449 796.949 787.052 648.436 705.246 607.488 595.361 566.461 541.791 522.75 512.06 499.199 428.258 412.692 452.455 395.829 384.044 382.87 361.377 357.968 347.177 321.525 318.155 305.22 486.417 512.209 303.606 293.641 276.438 334.691 261.588 254.815 682.112 356.635 270.136 325.735 252.85 236.603 256.44 490.846 245.216 274.38 559.447 1036.24 796.254 410.726 796.8 605.372 668.72
threshold=1.3086149627788575 1.0000000180025095e-35 0.17450466033041298 -0.48823978720574163 -0.29311624773338113 0.41018758778655784 -0.29311624773338113 -0.23353562390503121 1.0000000180025095e-35 -0.00052541477783383725 0.85940127528270771 1.7578286502750071 -0.32853440178927845 0.41018758778655784 -0.33224690096740467 1.4735370432344654 1.328048223519757 -0.15899248888682307 0.092870614060980572 -0.3193129341200393 -0.25707644393459933 -0.31497570412886 2.4598749715736727 -0.30404401707187512 0.14365336366598588 -0.1786570560224858 -0.1441050433946261 2.4598749739659653 -2.4598749740226604 4.0966852354870946 -0.34156350607160674 -0.1619863121660394 -2.4598749738611425 2.4598749737096619 0.10398945984863132 -0.3251058319944638 0.15807098854136417 -0.33350592643570892 -0.34347427056317376 -0.34573955851894045 -0.34751282211319351 2.7693541565770352 -0.48823978720574163 7.6464756847582604 -0.33307329909520217 -0.15320295764516823 -0.14728463767046482 -0.5925267841643892 -0.24122435294663222 -0.2432503194032847 -2.45987497403685 -0.3193129341200393 -0.3166974662575302 2.6562560252673069 -0.31087767539991035 -0.2975039471568835 3.5546834002596062 4.0038970877557567 -0.30279060766805715 -0.28859229487024268 -0.28368883432025277 2.2070423377711568 2.6562560252673069
decision_type=2 2 2 2 2 2 2 2 2 2 2 2 2 2 2 2 2 2 2 2 2 2 2 2 2 2 2 2 2 2 2 2 2 2 2 2 2 2 2 2 2 2 2 2 2 2 2 2 2 2 2 2 2 2 2 2 2 2 2 2 2 2 2
left_child=1 2 3 4 12 7 33 21 19 -6 24 16 14 15 44 27 23 25 -19 -9 40 -5 26 37 50 -12 31 28 -4 41 -10 -11 -16 -7 -20 -35 -26 38 39 -2 -13 -22 -17 -44 -1 48 -47 -48 49 -25 -8 -42 53 -53 -54 56 58 -58 -56 -57 61 -61 -63
right_child=11 -3 13 5 9 6 10 8 30 22 17 20 -14 -15 32 42 -18 18 34 -21 29 -23 -24 45 36 -27 -28 -29 -30 -31 -32 -33 -34 35 -36 -37 -38 -39 -40 -41 51 -43 43 -45 -46 46 47 -49 -50 -51 -52 52 54 -55 55 59 57 -59 -60 60 -62 62 -64
leaf_value=0.086437695902664272 -0.059288039551832289 0.10688162142363822 0.090579733038231927 0.1267523685488243 0.10740734316857453 0.13562653309177947 -0.07328958130086545 0.15178283843118567 0.20776848726580349 0.14051523324649418 0.068434334184450926 0.27403372160988249 0.10439497964133081 0.093938157968006614 0.10075124589594775 0.111774072048293 0.1039632990476423 0.01259378086614512 0.2367208224065146 0.14053155473971821 -0.012114399165779031 0.10675543215554151 0.12354237571699492 0.019504344575940372 0.23231641240829504 0.14892931958099995 0.15215105394055589 0.10620361989377798 0.12089688213602126 0.15263780418438486 0.11892608539430911 0.10361089491902054 0.043023224899477283 0.12597984813645552 0.080179355706429742 -0.069731226323190995 0.10208817570191658 0.10841658665841269 -0.06043829041555402 0.21953167813198038 -0.00024981542359481327 0.054124156730005785 0.10289535145435352 0.073182277169642374 0.12053640912858715 0.2989146734198565 0.11603965283458584 0.024220099823670661 -0.031300132145628434 0.27254030418046044 0.098616981989772673 -0.055252806271080694 -0.054540464810945766 0.31928356940990366 -0.054671977589657618 -0.054279417351218863 0.46713834632012213 -0.05363757042487436 0.17217413250560129 -0.054030050004540857 0.020218165548913914 0.49429273964694825 0.12114148228322315
leaf_weight=13410.73010468483 25.858277916908264 65459.408773788251 1285.6187307536602 6606.5878438949585 3749.2615452185273 6370.6600183397532 21.461722746491432 17060.99558351934 123.52923206984997 11725.80836725235 1363.2259750366211 13.018616676330565 11354.453645706177 7165.3397674560547 326.74183421395719 9495.1605224609375 467.65602874755859 973.39956092834473 43.893718719482422 40419.087392309681 3409.0911838337779 7633.3173303920776 3570.8881738018245 442.1072998046875 117.20249557495117 224.29998207092285 10107.496679285541 7106.4474753886461 28789.438508823514 38.345618456602097 7958.2996306587011 747.61687707901001 1591.9012627098709 43.594304800033569 183.43909454345703 40.465011939406395 78.186676025390625 326.55741679668427 81.701276183128357 45.377102851867676 393.48647618293762 175.95029449462891 12625.829879760742 1024.65380859375 587.0700159072876 24.309279561042786 115.22801906429231 1286.1199895832688 357.29789173603058 13.095335006713865 6434.4486304372549 14.175809547305105 61.510401248931885 22.84556944668293 78.984134316444397 112.37621450424194 24.687230303883553 15.580635920166968 75.815770894289017 15.703096918761728 289.38339722156525 23.4902583360672 24.559284038841724
leaf_count=176292 430 87123 1841 7759 4482 27115 99 49677 114 67858 15696 84 77411 16027 593 10030 696 15240 269 187115 53113 9615 4777 6416 396 2198 46321 7833 50286 15 10433 5792 21742 43 1374 202 401 3142 1296 390 6924 488 15734 1765 5922 423 156 14421 7683 188 49871 314 1185 218 1361 1860 186 275 902 312 5353 248 422
internal_value=0.115139 0.117813 0.12106 0.125707 0.115853 0.131594 0.10689 0.136515 0.140964 0.137347 0.0881648 0.0193036 0.0922856 0.110535 0.0836471 0.112506 0.0440491 0.0588373 0.0311122 0.143871 0.0028447 0.116033 0.14164 0.033739 0.100459 0.0798074 0.144502 0.11704 0.119601 -0.00715434 0.120284 0.138303 0.0528542 0.134274 0.110405 0.0317672 0.180204 0.0811167 0.0228247 0.118321 0.0339273 -0.00886348 0.105222 0.100665 0.0878678 0.023589 0.0363253 0.0317701 0.00124129 0.0267837 0.0980455 0.0312153 0.0475252 0.17587 0.040945 0.0498362 0.0996164 0.265637 0.0564296 0.0289764 0.0554703 0.215486 0.303566
internal_weight=293794 285820 220361 152868 57172 95696.1 15894.3 79801.8 65561.9 29901.1 9439.56 7974.31 27270.9 67492.5 15916.4 60327.1 3185.31 2788.26 1200.73 57480.1 4789 14239.9 26151.8 2717.65 6651.3 1587.53 22580.9 37181.5 30075.1 3623.39 8081.83 12473.4 1918.64 6454.72 227.333 84.0593 195.389 479.494 152.937 71.2354 1165.62 3585.04 23145.6 13650.5 13997.8 2238.16 1425.66 1401.35 812.501 455.203 6455.91 1152.6 759.112 37.0214 722.09 660.58 195.068 40.2679 154.8 465.512 353.136 63.7526 48.0495
internal_count=1087947 979446 892323 788807 411190 377617 112904 264713 247339 129230 85544 108501 281960 103516 204549 87489 35241 34777 16883 236792 73260 17374 124748 34545 50767 17894 119971 59960 52127 53616 10547 73650 22335 27360 1643 245 797 5258 2116 820 19644 53601 27529 17499 182214 29287 15000 14577 14287 6604 49970 19560 12636 532 12104 10919 2724 461 2263 8195 6335 982 670
is_linear=0
shrinkage=0.05


Tree=5
num_leaves=64
num_cat=0
split_feature=2 1 2 2 0 0 0 0 0 0 0 0 2 0 0 0 2 0 0 0 0 0 0 0 0 3 3 1 0 2 0 0 0 0 1 0 0 2 2 0 0 0 2 0 0 2 0 0 0 0 0 0 0 0 1 2 0 3 0 2 0 2 0
split_gain=21399.7 20164 6654.09 7349.35 12053.7 10113.5 4874.23 2714.34 1438.37 1084.57 1001.27 999.722 903.703 701.752 600.805 549.866 536.851 525.359 632.502 499.164 573.453 489.408 479.519 469.717 658.164 434.712 733.844 562.282 790.926 539.438 416.803 416.345 819.451 413.15 390.817 392.58 449.861 426.83 403.731 383.074 643.744 483.032 380.916 363.326 385.999 356.364 499.818 454.412 545.591 1389.22 349.807 349.747 482.753 338.101 331.387 406.353 815.646 327.665 287.762 637.549 423.858 302.613 363.566
threshold=1.3086149627788575 1.0000000180025095e-35 0.41018758778655784 -0.48823978720574163 -0.30979591917851124 0.19022814294065857 -0.29164616645359093 -0.29876891934110666 0.22903059456847594 -0.29458502644692103 -0.34347427056317376 1.328048223519757 1.7578286502750071 -0.3002026540126474 0.22903059456847594 -0.24122435294663222 1.0000000180025095e-35 -0.31398354943586076 -0.31087767539991035 -0.34573955851894045 -0.34552314715621829 -0.2975039471568835 -0.34486861763525806 -0.32311011012416579 -0.3224176608957155 1.0000000180025095e-35 -2.1753971605910958 1.4867793763201067 0.12963224997689385 0.85940127528270771 -0.31297229210781591 -0.26653514899695246 -0.25903995233955712 -0.32094502959199728 2.7859320645728913 -0.28039938862069463 -0.28859229487024268 2.2070423377711568 3.5546834002596062 -0.083808615421641239 -0.079402394508035698 -0.12845936406847605 -1.0000000180025095e-35 -0.11807573677111223 -0.099899055993905181 3.5546834002596062 -0.30755394214875204 -0.31087767539991035 -0.33730802213236483 -0.33760739694548114 -0.041220174829838065 0.036197098767332785 0.044609171808209121 -0.2975039471568835 1.4867793763201067 -0.48823978720574163 -0.29311624773338113 -2.4598749737323868 -0.2432503194032847 -0.48823978720574163 -0.32170305301140217 0.41018758778655784 -0.10726399101641522
decision_type=2 2 2 2 2 2 2 2 2 2 2 2 2 2 2 2 2 2 2 2 2 2 2 2 2 2 2 2 2 2 2 2 2 2 2 2 2 2 2 2 2 2 2 2 2 2 2 2 2 2 2 2 2 2 2 2 2 2 2 2 2 2 2
left_child=1 2 3 4 23 7 17 -5 9 13 19 42 14 -6 15 -12 21 -4 -19 -2 -21 -9 -22 -1 -25 26 54 28 29 58 33 -18 -33 -26 35 36 45 -38 -37 41 -41 -8 -7 -11 -45 -14 47 48 49 -47 -46 -52 -53 -31 55 -3 -57 -58 59 -27 -61 -60 -63
right_child=10 25 6 5 8 11 39 16 -10 43 12 -13 34 -15 -16 -17 31 18 -20 20 22 -23 -24 24 30 27 -28 -29 -30 53 -32 32 -34 -35 -36 38 37 -39 -40 40 -42 -43 -44 44 50 46 -48 -49 -50 -51 51 52 -54 -55 -56 56 57 -59 61 60 -62 62 -64
leaf_value=0.069224155679372332 0.042481114143220311 0.09448606193699248 0.15802507503214488 0.17425321250246251 0.12426594626043247 0.12681528218366825 0.06370151351607678 0.036138609237282397 0.1168933638270713 0.13708670198164824 0.054368680357120142 0.094022986290139374 0.0032300610393995116 0.059000884522907304 0.07095117688912371 0.0022935736462770611 0.15722461068380011 -0.0098033422150873052 0.12655516281480145 0.47863622289845492 -0.058061516538512804 0.15226371014791648 0.21326844120861962 0.17525716529089844 0.046719341577796891 0.081134530475700017 0.091362484946920175 0.095193120073602366 0.09638033522916227 0.13726370411930763 0.039933800754825423 0.030107621477875351 0.13250689832453263 0.10822227635143417 0.1295454936529262 0.00526505650847811 -0.053796855476941609 0.17547364585111036 -0.03743493921857715 0.24383111265838867 0.07605722027205368 0.0070497965038554813 0.10576345343946383 0.19235019217309535 0.12453181742628 -0.054470010410593343 -0.054804112482427905 0.35766020233858553 0.016329660818090147 0.70062958543994869 0.171300967889049 0.047054695763467179 0.1482243579456336 0.021510919657539197 0.095122920945693634 0.11831860340218368 0.095150835573840686 0.1586653464070911 0.12386505835333864 0.1455927924259301 0.1072214818972998 0.11738619526981793 0.039615981776520662
leaf_weight=11244.096138238907 86.437426567077637 9460.3429565429688 2034.7894310951233 12833.528960227966 1316.4834899902344 5806.6053771972656 2970.8794994354248 91.378533363342285 11891.216018676758 8993.4158744812012 899.02082026004791 7061.1070251464844 590.58748755604029 599.39870452880859 1086.6146988868713 1162.2617225162685 1684.3730316162109 95.125259399414062 802.34909057617188 16.06585693359375 20.598074913024902 12816.412274491973 77.740649700164795 224.30094909667969 340.61363220214844 1739.1285400390625 80512.96168410778 33982.898134961724 13764.033828735352 84.348243366926908 410.33803558349609 201.63067245483398 6297.4865913391113 1376.7626647949219 63.44426865875721 3131.2955358065665 25.971299294382334 92.965093355625868 672.45726255699992 57.767654418945312 5571.1957278698683 430.82573127746582 3411.0440063476562 555.26702117919922 1195.8738861083984 13.123353093862534 42.556977145373821 20.786913156509399 60.550423443317413 11.367292761802673 1935.2901723384857 122.74414825439453 2996.3032684326172 250.24445759132504 29117.716109111905 8591.7503315210342 8580.4092203378677 207.98198830708861 7315.9399287756532 1004.3864696919918 2539.035423386842 397.57558178901672 241.60017466545105
leaf_count=213601 1215 17651 15192 56758 11944 11182 47213 623 17560 76150 11059 9280 9688 5437 3299 19947 9603 1115 6859 138 361 84851 673 2206 4337 4070 89747 35748 16488 174 5116 2130 53130 17785 40 47935 535 1034 10396 766 33358 8669 8018 4395 11030 245 667 126 958 14 9905 806 10719 1081 30703 13005 11803 333 12802 1556 3853 789 790
internal_value=0.103263 0.105402 0.12307 0.127566 0.112447 0.140577 0.0879599 0.156122 0.130345 0.139374 0.0229237 0.10818 0.0201114 0.103847 0.0408657 0.0250059 0.14509 0.14397 0.112102 0.133166 0.201682 0.151442 0.156436 0.0734746 0.0937946 0.0959904 0.0944192 0.0994874 0.104826 0.113391 0.0852069 0.135071 0.12933 0.0960242 0.00628471 0.00460715 0.0351598 0.125409 -0.00228378 0.0697736 0.077779 0.0565266 0.119025 0.143683 0.152399 0.0206343 0.089905 0.148097 0.0968732 0.296008 0.14885 0.154603 0.144243 0.0506913 0.0988171 0.102825 0.107364 0.0966539 0.114975 0.105929 0.118098 0.120983 0.0879901
internal_weight=311233 303159 105369 93405.7 43202.1 50203.6 11962.9 33924.8 29606 17714.8 8073.85 16278.8 7873 1915.88 3147.9 2061.28 21091.3 2932.26 897.474 200.842 114.405 12907.8 98.3387 13596.1 2352.02 197790 136471 61319.2 27336.3 13572.3 2127.71 8183.49 6499.12 1717.38 4725.11 4661.66 857.909 118.936 3803.75 9030.67 5628.96 3401.71 9217.65 15798.9 6805.48 738.972 148.385 105.828 85.0411 24.4906 6250.21 5054.34 3119.05 334.593 55958.2 26840.5 17380.1 8788.39 13237.7 5282.55 3543.42 7955.12 639.176
internal_count=1088661 980331 739738 626566 390991 235575 113172 207095 147946 130386 108330 28480 105943 17381 34305 31006 150337 23166 7974 2387 1172 85474 1034 243045 29444 240593 163242 77351 41603 25115 27238 64863 55260 22122 71638 71598 13267 1569 58331 90006 34124 55882 19200 113005 36855 11698 2010 1343 1217 259 32460 21430 11525 1255 73495 42792 25141 12136 23860 9479 5409 14381 1579
is_linear=0
shrinkage=0.05


Tree=6
num_leaves=64
num_cat=0
split_feature=2 1 2 2 2 2 3 3 1 1 3 3 4 3 3 2 3 2 3 2 2 4 4 3 2 2 2 3 2 2 3 2 3 3 3 4 3 3 3 3 3 3 3 3 3 3 3 2 3 4 3 3 3 3 3 2 3 3 3 3 2 3 3
split_gain=17837.9 12087.4 4540.29 6107.29 567.167 533.557 407.366 344.405 328.976 294.156 348.4 645.276 866.849 617.933 396.071 390.35 374.365 312.455 238.562 279.143 228.032 224.855 189.37 420.562 292.255 186.75 227.758 382.049 182.838 175.347 154.351 135.194 129.109 129.093 193.538 128.23 125.969 322.336 125.82 354.422 216.846 196.982 256.929 120.817 119.1 116.856 111.668 110.903 104.783 146.255 99.8926 104.743 97.9835 167.034 97.5252 97.4521 147.522 214.241 208.42 236.893 144.301 115.793 105.938
threshold=1.3086149627788575 1.0000000180025095e-35 0.41018758778655784 -0.48823978720574163 0.85940127528270771 -1.0000000180025095e-35 2.4598749715736727 4.002781661408167 1.0000000180025095e-35 1.4867793763201067 -2.4598749714427552 -2.4598749724358986 1.0000000180025095e-35 1.0000000180025095e-35 2.4598749740252264 -0.48823978720574163 -2.459874974028923 1.0000000180025095e-35 -2.4598749739900221 0.41018758778655784 2.2070423377711568 1.0000000180025095e-35 1.0000000180025095e-35 -2.4598749734331902 0.41018758778655784 0.85940127528270771 -0.48823978720574163 2.4598749740066173 4.0038970877557567 4.4531107752519068 -2.4598749740237302 -1.0000000180025095e-35 -2.459874973208962 -1.5098212279177263 -2.4598749737948107 1.0000000180025095e-35 -2.4598749739949448 -2.45987497400519 -2.4598749740230326 -2.4598749740210692 -2.4598749740252708 -2.4598749740295962 -2.4598749740287364 2.4598749739072572 -2.4598749740299741 -2.4598749740188239 -2.4598749740244172 1.7578286502750071 -2.4598749740262247 1.0000000180025095e-35 -2.9706107164642188 -2.7979974644617092 -2.459874974024657 -2.4598749740278492 2.4598749740156935 1.0000000180025095e-35 -2.4598749739706141 -2.4598749739759911 -2.4598749738847672 -2.4598749734992973 0.41018758778655784 -2.459874973973549 -2.4598749738330361
decision_type=2 2 2 2 2 2 2 2 2 2 2 2 2 2 2 2 2 2 2 2 2 2 2 2 2 2 2 2 2 2 2 2 2 2 2 2 2 2 2 2 2 2 2 2 2 2 2 2 2 2 2 2 2 2 2 2 2 2 2 2 2 2 2
left_child=1 2 3 -1 -4 -5 8 47 28 10 11 15 -13 -12 25 21 -17 -16 19 45 33 38 23 -20 32 26 27 -15 -2 52 -21 -11 -25 34 -10 54 37 -32 40 -40 41 44 -43 -27 -3 46 48 -8 49 -18 -33 -52 53 -22 -29 61 57 -57 -58 60 62 -24 -60
right_child=6 9 4 5 -6 -7 7 -9 20 31 13 12 -14 14 17 16 18 -19 22 30 29 -23 55 24 -26 43 -28 35 -30 -31 36 50 -34 -35 -36 -37 -38 -39 39 -41 -42 42 -44 -45 -46 -47 -48 -49 -50 -51 51 -53 -54 -55 -56 56 58 -59 59 -61 -62 -63 -64
leaf_value=0.098580097052194698 0.02225104805295966 0.083698645119607618 0.088391979252884556 0.12693214393872815 0.066543973904149595 0.116812519447771 -0.0046457199194338715 0.1160136614396769 0.053113096152611318 0.087292702022598298 0.085190181140363586 0.31688771074126665 0.093938269747584346 0.080661561526616132 0.093185402400365533 0.090758090095772237 0.11962188388533231 0.076972293123539579 0.10095673037744349 0.11041162205062566 -0.065815613463044084 0.093592562194582007 0.12886035368269497 0.20517897017160489 0.29796046706196055 0.11103690670067606 0.10658298781912219 0.14328069123824247 -0.010078649090640717 0.12013326271643131 0.072309962103439498 0.095466847919614656 0.063321868546789284 0.083254961718703099 -0.070826071394532869 0.096645024425646084 0.13296627957982438 -0.069121134909852736 -0.066218499928442032 0.072333170871777125 0.12675848618179039 -0.068206714373973257 0.062025904499154461 0.044467969799394221 0.13874379237610635 0.12294344273784484 0.093202344842685386 -0.048447807909380913 0.13154175183205466 0.071908877801745888 0.03441118722673632 0.082504648958711735 -0.062342077409628452 0.12461607588548487 0.10972642895091203 -0.067794818033936805 0.10076712387554881 0.12144917879545994 0.08580158903900531 0.0914942314899896 -0.073359428753123471 0.086759481875486835 -0.0086634517241304995
leaf_weight=46315.98876953125 6127.0299779092893 1921.1135235521942 8150.166109636426 34890.60546875 4674.0249633789062 20784.911426908337 267.37789043132216 44.491727203130722 384.5079577639699 66334.835693359375 54684.56772518903 76.400891264900565 101.54589382559061 2664.9388657342643 11023.144906669855 8379.9452929981053 473.91909964382648 4068.3930492401123 1753.5866841934621 356.42555928044021 23.05475386697799 4856.3158205803484 196.95227884501219 31.425748351961374 45.943477563560009 95.857544474303722 8264.8788813408464 381.39766004495323 470.93744166940451 23.477779142558575 392.68469912931323 1525.6015773266554 32.760447818785906 378.3110158694908 34.309087318368256 806.29568946361542 63.875416062772274 44.891994459554553 47.204248875379562 2080.5016717910767 285.36246772110462 43.459093049168587 294.56632976233959 235.88541550189257 103.56634438037872 2778.4577398821712 841.16615951620042 314.46736676990986 618.38361117616296 242.94617101177573 113.73609103262424 24561.07453584671 79.538464201614261 23.005491663701832 501.0269644446671 42.200985779985785 419.80675065144897 23.16455490142107 53.360484540462494 154.42366750352085 43.114340208470821 956.43543572165072 66.87517574429512
leaf_count=391452 95040 2745 66663 138709 46298 96707 1122 27 1103 68365 59000 145 127 5705 12590 9810 613 6034 2423 530 139 7718 294 109 50 206 13279 399 7518 66 897 1330 136 531 186 1516 94 233 272 4994 409 236 777 898 127 3551 1583 2075 697 599 237 27676 545 70 865 226 567 68 73 200 209 1423 239
internal_value=0.0936275 0.0955024 0.108469 0.111995 0.0804291 0.123154 0.0206806 -0.0180666 0.0238975 0.0881715 0.0899125 0.0947526 0.189661 0.0882847 0.0943193 0.0941417 0.0984864 0.0888147 0.10521 0.111588 0.0514688 0.0860167 0.0955033 0.106909 0.201687 0.100734 0.101708 0.0924522 0.0199435 -0.00529017 0.0852555 0.0860916 0.132776 0.0620838 0.0429601 0.111059 0.0673749 0.0578002 0.0783132 0.0692593 0.0855879 0.0806154 0.0452822 0.0637031 0.0865143 0.116148 0.107472 -0.0283192 0.116461 0.103452 0.0830506 0.082283 -0.0287352 0.0292984 0.124229 0.0846375 0.0712627 -0.00072962 0.0776428 0.0470935 0.00511908 0.0939486 0.0332601
internal_weight=326071 317900 114816 101992 12824.2 55675.5 8170.51 626.337 7544.17 203084 110549 27822.8 177.947 82726.4 28041.8 27644.8 18012.7 15091.5 9632.8 5812.75 946.205 9632.09 3820.05 1863.72 110.13 12950.3 12618.5 4353.66 6597.97 149.076 857.878 92535.2 64.1862 797.128 418.817 1688.72 501.452 437.577 4775.77 2127.71 2648.07 2362.71 338.025 331.743 2024.68 4954.87 2176.42 581.845 1335.25 716.865 26200.4 24674.8 125.599 46.0602 882.425 1956.33 802.946 65.3655 737.58 317.774 163.35 1153.39 120.236
internal_count=1088525 980103 739829 626868 112961 235416 108422 3224 105198 240274 142666 42174 272 100492 41492 41902 24624 18624 14814 8797 2640 17278 6017 2718 295 22868 21764 8485 102558 820 1754 97608 245 1820 1289 2780 1224 1130 9560 5266 4294 3885 1013 1104 2872 7043 3492 3197 1909 1212 29243 27913 754 209 1264 3299 1582 294 1288 721 521 1717 312
is_linear=0
shrinkage=0.05


Tree=7
num_leaves=64
num_cat=0
split_feature=2 1 2 2 0 0 0 0 0 2 2 2 0 1 0 0 0 0 0 0 0 2 2 0 0 1 0 2 3 0 0 0 0 0 0 2 0 2 0 0 0 0 0 0 0 0 2 0 0 0 0 0 0 0 0 0 0 0 0 2 0 0 3
split_gain=12512.8 5689.45 4010.21 3873.98 8310.78 3686.1 2149.44 1974.09 1752.45 894.976 765.232 705.969 701.796 639.026 716.277 549.787 469.054 456.498 529.778 445.148 440.693 429.423 619.197 396.236 643.106 390.214 305.309 410.601 297.466 289.222 322.561 264.088 248.458 793.428 574.007 565.092 690.641 382.344 349.752 234.083 527.878 583.301 253.593 221.154 318.3 220.976 247.911 239.566 220.829 366.058 356.329 419.556 947.406 318.853 249.083 348.173 310.761 214.933 656.33 904.533 237.771 250.509 208.602
threshold=1.3086149627788575 1.0000000180025095e-35 0.41018758778655784 -0.48823978720574163 -0.29311624773338113 -0.30867601279559331 -0.3251058319944638 0.68158554544536021 -0.32689175052082409 1.7578286502750071 -1.0000000180025095e-35 0.85940127528270771 0.68158554544536021 1.0000000180025095e-35 -0.32800427235507773 0.22903059456847594 -0.27362185085856017 -0.30755394214875204 -0.30640863071408603 1.084690136724648 2.3721693732038984 2.2070423377711568 1.7578286502750071 -0.22427134799364837 -0.22208442943730902 1.4867793763201067 -0.33307329909520217 4.0038970877557567 1.0000000180025095e-35 -0.24122435294663222 -0.3119512054144527 2.7693541565770352 -0.34573955851894045 -0.34417856813463016 -0.33760739694548114 3.5546834002596062 -0.33350592643570892 2.6562560252673069 -0.34751282211319351 -0.32800427235507773 -0.33266329131861633 -0.33052811971149926 -0.29601392158385553 -0.2130248306740021 -0.21058290471497462 -0.32630416288538117 0.85940127528270771 -0.33052811971149926 -0.34325696243368714 -0.34442026431221584 -0.34106557006326549 -0.3417968207363597 -0.34203629754144987 -0.34028398522434344 -0.3466984627034696 -0.34712590482832667 -0.34616959575655748 -0.26824299871609703 -0.27005636131137395 2.2070423377711568 -0.28039938862069463 -0.3193129341200393 1.0000000180025095e-35
decision_type=2 2 2 2 2 2 2 2 2 2 2 2 2 2 2 2 2 2 2 2 2 2 2 2 2 2 2 2 2 2 2 2 2 2 2 2 2 2 2 2 2 2 2 2 2 2 2 2 2 2 2 2 2 2 2 2 2 2 2 2 2 2 2
left_child=1 2 3 4 39 -5 45 10 13 15 -7 16 -13 14 21 29 -8 -12 -19 23 -9 22 -2 -6 -25 28 32 -28 31 30 -10 57 38 37 -35 36 -36 -34 -23 40 48 -42 -41 -31 -45 47 -47 -4 49 54 51 52 -50 -52 55 -1 -56 58 60 -60 61 -11 -3
right_child=8 62 6 5 19 7 11 20 9 25 17 12 -14 -15 -16 -17 -18 18 -20 -21 -22 26 -24 24 -26 -27 27 -29 -30 43 -32 -33 33 34 35 -37 -38 -39 -40 42 41 -43 -44 44 -46 46 -48 -49 50 -51 53 -53 -54 -55 56 -57 -58 -59 59 -61 -62 -63 -64
leaf_value=0.053292762572491985 0.12619939687040921 0.080712924536728584 0.12438014976906341 0.12977876145682937 0.095286240352249849 0.11201352682747581 0.095788975512140551 0.089783984642675549 -0.026706897853940183 -0.053446961203443222 -0.059246300491793774 0.033444123588919142 0.081519231645592827 0.033203723351166496 0.36675054045548466 0.065235822623251213 0.064782538187735134 0.19605104587131891 0.096237927391208095 0.092385412505365222 0.06950614571413892 0.2746580768494718 -0.053089227271968069 0.19502037554829266 0.10923152394468807 0.10326821738072663 -0.053460075327293438 0.28421963262861011 -0.046700528251107279 -0.055043533691432348 0.062269337774307043 0.062030294700482741 0.65120129751676292 0.029413622917775613 -0.053199753385368156 0.37231091458253374 0.48992913559225287 0.30677391218610961 -0.054196530952477742 0.070759591351337109 -0.0017446013256390243 0.05756010909234114 0.024861823630062042 0.25196308528819494 0.011428359116596329 0.13514832090911291 0.29737439971693813 0.066952929456533458 0.091313321794106811 0.019344865547404416 0.0190105737344325 0.1291397196150115 -0.052388004476374796 0.064519200887481018 0.097961200483204627 -0.026427628512193064 0.054845701566105881 -0.0028964991730501743 0.53566561417338132 -0.052949314634004985 -0.053343105579984063 0.041942784393618267 0.084132571580067178
leaf_weight=674.57225799560547 143.15365378186107 143873.55580681935 1426.4539232254028 13734.561632156372 5784.2121887207031 21645.191528320312 1520.241060256958 7351.1689758300781 122.66816139221191 79.042195796966553 46.756618499755859 3097.1059341430664 1005.598575592041 242.0299249663949 30.628433905541897 1208.4901361465454 6170.1331062763929 134.3221321105957 12928.123628212139 6887.1488952636719 4216.0460815429688 12.92672538757324 72.570312932133675 221.01433563232422 18859.777066469193 97.168041795492172 31.112537819892168 12.667504772543905 293.18067446537316 127.73962593078613 600.48552274703979 196.19597068428993 12.184588126838205 51.54932713508606 22.686608433723453 40.090487100183964 7.8882746919989577 23.78838212043047 21.587499737739563 6475.7920837402344 751.17396545410156 925.43324947357178 315.61820697784424 13.934875488281248 1058.0905638374388 66.514497876167297 36.458781123161316 208.09970664978027 775.5616455078125 717.07923316955566 420.26032376289368 448.6585214138031 134.604248046875 4574.0073220729828 641.67772674560547 171.85287475585938 1198.5304641723633 3263.4898597225547 14.561167238280179 11.828983619809149 100.57698535919189 532.57401514053345 64628.86590095982
leaf_count=9715 2376 163144 8891 49084 39085 97697 10905 10332 1554 1572 355 40279 1847 791 305 3351 48937 342 72483 6326 5096 44 1629 926 83110 121 530 96 1995 2716 7352 474 114 1000 412 161 47 227 435 64409 12906 12914 2550 231 17059 296 164 1619 15624 15466 9067 8703 3094 68660 7912 6532 24400 53378 131 247 2025 7699 77074
internal_value=0.0852827 0.0868112 0.0953128 0.0984715 0.0881871 0.10703 0.069626 0.100285 0.0251796 0.0182002 0.10624 0.0619766 0.0452276 0.0995117 0.13275 0.0388083 0.0709119 0.0967061 0.0972643 0.103634 0.0823931 0.116901 0.0658861 0.10675 0.110225 0.00413668 0.163437 0.0442456 0.00199207 0.0221995 0.0471763 0.00539245 0.190516 0.217036 0.156284 0.248833 0.0869267 0.423437 0.0689705 0.0612741 0.0569068 0.0309897 0.0686266 0.00714479 0.014555 0.121544 0.192586 0.117069 0.0613604 0.0510836 0.0668663 0.0895679 0.0700614 0.0606897 0.0595548 0.0371068 0.06988 0.00261586 0.0269727 0.271828 0.0178996 0.0296151 0.0817729
internal_weight=340511 332066 123564 110033 49977 60056.2 13530.6 46321.6 8444.89 7720.03 34754.4 11793.1 4102.7 724.864 482.834 3131.41 7690.37 13109.2 13062.4 31752.2 11567.2 452.206 215.724 24865 19080.8 4588.62 236.482 43.78 4491.45 1922.92 723.154 4198.27 192.702 158.188 122.215 70.6654 30.5749 35.973 34.5142 18224.8 11433.4 1676.61 6791.41 1199.77 1072.03 1737.53 102.973 1634.55 9756.8 3403.71 6353.09 1358.82 910.166 4994.27 2686.63 846.425 1840.21 4002.07 738.583 26.3902 712.193 611.616 208502
internal_count=1088016 979944 739726 626788 391399 235389 112938 186305 108072 99905 170877 101968 42126 8167 7376 32263 59842 73180 72825 129447 15428 7071 4005 123121 84036 67642 3066 626 67521 28912 8906 65526 2440 1961 1620 620 459 341 479 261952 194993 25820 66959 20006 17290 10970 460 10510 169173 64025 105148 27421 18718 77727 48559 16247 32312 65052 11674 378 11296 9271 240218
is_linear=0
shrinkage=0.05


Tree=8
num_leaves=64
num_cat=0
split_feature=2 1 2 2 0 0 0 0 1 0 0 0 0 0 2 0 0 2 0 1 0 2 0 0 0 0 0 0 0 0 2 0 0 0 0 0 2 0 2 2 0 0 2 0 2 0 0 0 0 0 0 0 0 0 0 0 0 2 0 0 0 0 0
split_gain=12679.3 1906.95 3283.07 3889.2 9282.36 3325.3 2752.9 1054.02 865.247 781.269 672.337 659.074 431.556 435.076 397.604 347.303 339.615 302.619 298.434 322.621 341.872 572.874 371.354 294.354 281.042 273.519 319.387 316.749 257.953 440.013 256.097 255.415 245.54 517.167 352.324 368.951 722.605 240.392 471.227 265.473 293.064 255.425 313.012 272.416 286.699 235.429 213.605 227.266 191.902 187.559 575.347 502.935 225.603 183.432 181.197 265.191 311.113 389.553 248.394 180.131 374.773 173.389 283.551
threshold=1.3086149627788575 1.0000000180025095e-35 0.41018758778655784 -0.48823978720574163 -0.30867601279559331 -0.29458502644692103 -0.30404401707187512 -0.32689175052082409 1.4867793763201067 1.4735370432344654 0.5175340795439145 1.328048223519757 -0.31297229210781591 -0.31398354943586076 0.85940127528270771 -0.29458502644692103 -0.29311624773338113 1.0000000180025095e-35 -0.3466984627034696 1.0000000180025095e-35 -0.34347427056317376 3.5546834002596062 -0.32800427235507773 -0.30147931923390076 -0.3002026540126474 0.33043321788864549 0.053135184326882252 0.0067610353238240955 -0.32630416288538117 -0.32570324899522518 3.5546834002596062 -0.34732789277476356 -0.25521866383019226 -0.31087767539991035 -0.30979591917851124 -0.25707644393459933 1.7578286502750071 0.12963224997689385 1.7578286502750071 6.6991792127326546 -0.079402394508035698 0.25022192465529114 4.902324462748056 0.2083496700569121 2.2070423377711568 0.19022814294065857 0.98325671272253246 -0.15036606353987392 0.22903059456847594 -0.21764888074359431 -0.20580102870469583 -0.24519377830773056 -0.28039938862069463 0.30104709283121961 -0.34573955851894045 -0.34530451642100074 -0.34370937375158556 2.2070423377711568 -0.34660480318021353 -0.19649860153313967 -0.18888277221136987 0.15807098854136417 0.5175340795439145
decision_type=2 2 2 2 2 2 2 2 2 2 2 2 2 2 2 2 2 2 2 2 2 2 2 2 2 2 2 2 2 2 2 2 2 2 2 2 2 2 2 2 2 2 2 2 2 2 2 2 2 2 2 2 2 2 2 2 2 2 2 2 2 2 2
left_child=1 2 3 4 12 28 31 18 11 17 14 32 13 -1 23 -16 -17 -7 -2 20 30 22 -22 -8 -25 26 27 49 -5 -30 54 -4 33 -9 -35 -36 -37 39 -39 -34 -41 43 -43 -40 -45 -28 47 -6 -47 51 -51 52 -18 -26 58 -56 57 -57 -20 -52 -61 -49 -63
right_child=7 -3 6 5 46 9 10 8 -10 -11 -12 -13 -14 -15 15 16 25 -19 19 -21 21 -23 -24 24 53 -27 45 -29 29 -31 -32 -33 37 34 35 36 -38 38 41 40 -42 42 -44 44 -46 48 -48 61 -50 50 59 -53 -54 -55 55 56 -58 -59 -60 60 -62 62 -64
leaf_value=0.046209291903123118 -0.057355763598330549 0.076138576454195764 -0.054190787769274509 0.11798511248233962 0.087741871128290391 0.093922458675221199 -0.057513628354240898 -0.040872164560355667 0.07987424741412491 0.072485209450422347 0.068798502851203744 0.049513931571129127 0.0053225189075337426 0.11202441548064135 -0.055633089676057838 0.18258850479044358 -0.020175203128323219 0.084812696393159609 0.23491646675238653 0.032747820738084917 0.019463120697487429 0.18937159747114085 0.19566740532245783 0.1593099908775171 0.052373930874608648 -0.036231575430134749 0.090059583875036431 -0.054498421227325816 0.010514784591283658 0.10741811758712079 -0.054544321942736645 0.10397414203223215 -0.013274724263962912 0.1910608762895937 0.024447527371960834 0.39941258186004336 -0.053328976155467445 0.040222431196507313 -0.009681342662472045 -0.053958588509294282 0.34712068106154609 -0.035379139371595723 0.083288748232506232 0.16813734238839903 0.012677469139749896 -0.059545197402277365 0.083005456425340116 0.10129378418737099 0.050940186405222299 0.15249277283969229 -0.053092144467413775 -0.053621486828837217 0.057851149601407116 0.013765954900719014 0.34360440040081697 -0.052892556495130777 0.44205082064119633 0.23156166738123307 -0.052145932845165013 0.1525292021691354 0.025549768557515354 0.081837590492922233 0.10201133816068264
leaf_weight=15762.817919254303 41.739375591278076 212223.97888214141 25.738540649414062 10612.336324691772 12590.755554199219 24124.023792718537 63.148753643035889 284.34797668457031 434.69217681884766 7142.9267272949219 3167.7104415893555 817.56612542271614 637.94002151489258 255.16877174377441 123.85353851318359 35.987619400024414 126.50585079193115 14654.085296630859 14.634444236755373 240.89159133471549 235.02402949333191 87.142757324501872 34.260518260300159 59.308774471282959 4655.5766923874617 156.11003684997559 352.3839111328125 125.77205467224121 119.0264892578125 7415.5770683288574 11.404245033860205 3077.3957118988037 3047.0430448390543 34.740581512451172 1122.5172500610352 18.905707411468029 16.50970945507288 781.54535831511021 187.5094737559557 7.9405922479927566 10.680655766278504 711.26022815704346 60.278634071350098 56.87836692482233 61.968461535871029 52.630233764648438 6953.8859252929688 9040.8205256462097 155.18854713439941 104.25162982940674 62.803736686706543 226.74707794189453 346.06937026977539 329.42136192321777 32.285493791103363 20.104890875518322 8.6542883366346341 29.989580400288105 15.535583436489103 62.539896011352539 820.12576580047607 3906.4016571044922 3143.3844299316406
leaf_count=236106 671 239921 366 32893 82832 94957 556 4929 551 8430 6264 2125 6780 1833 1361 226 1769 71916 39 748 4345 581 280 268 48954 852 2770 1674 613 26501 168 18379 63101 314 16081 186 350 3613 2094 157 82 5234 315 228 536 391 6928 42908 814 1477 1145 3607 4731 1456 192 407 68 251 400 886 15059 9292 4280
internal_value=0.0775734 0.0790632 0.0838196 0.0865833 0.076465 0.0948417 0.0610601 0.0169792 0.0113644 0.0876809 0.0493518 0.00723943 0.0456516 0.0472577 0.0415128 0.0261883 0.0300457 0.0904799 0.0726749 0.0801105 0.103441 0.0779411 0.0418812 0.0497669 0.0511099 0.0279271 0.0320403 0.0221418 0.112962 0.105887 0.171979 0.102662 0.00184088 0.0197216 0.0341678 0.0294607 0.188357 -0.00352147 0.0106624 -0.0121245 0.17609 -0.0107706 -0.0261079 0.0278553 0.0870783 0.0651675 0.0908673 0.0927734 0.0229597 0.0276529 0.041017 0.00759266 0.0369639 0.0498226 0.193292 0.228487 0.165223 0.117399 0.0870982 0.0287252 0.0345467 0.0967105 0.0908327
internal_weight=351138 342712 130488 116359 52291.2 64068 14129.3 8426.05 7654.38 45921 11026.1 7219.69 16655.9 16018 7858.42 2750.97 2627.12 38778.1 771.667 729.927 489.036 356.427 269.285 5107.46 5044.31 2591.13 2435.02 1874.82 18146.9 7534.6 132.609 3103.13 6402.13 1477.02 1192.67 1157.93 35.4154 4925.1 1859.44 3065.66 18.6212 1077.9 771.539 306.356 118.847 560.203 35635.2 28681.4 207.819 1749.04 1049.72 699.322 472.575 4985 121.204 91.0343 58.7488 50.0945 30.17 945.469 882.666 16090.6 7049.79
internal_count=1087241 979195 739274 626269 390959 235310 113005 108046 99896 175303 94260 99345 244719 237939 87996 36762 35401 166873 8150 7479 6731 5206 4625 51234 50678 35175 34323 30348 60007 27114 1525 18745 97220 21860 16931 16617 536 75360 12020 63340 239 8407 5549 2858 764 3975 146240 139312 1205 28674 18567 10107 6500 50410 1357 918 726 658 439 17090 15945 56480 13572
is_linear=0
shrinkage=0.05


Tree=9
num_leaves=64
num_cat=0
split_feature=1 0 0 0 0 0 0 0 0 0 0 0 0 0 0 0 0 0 0 0 0 0 0 0 3 3 0 4 0 0 3 0 0 0 3 3 3 1 3 3 3 0 1 4 3 0 0 0 0 3 0 0 3 3 0 3 1 0 0 0 3 4 3
split_gain=307.989 270.724 252.152 306.592 192.118 245.869 110.237 103.059 469.913 176.308 308.032 171.962 330.253 189.275 168.598 138.644 128.753 256.358 164.133 130.578 298.19 264.726 109.628 113.639 101.222 100.984 250.825 270.072 133.791 127.629 138.71 100.728 177.779 233.014 179.359 170.765 248.042 167.66 163.589 185.34 128.243 204.73 247.038 270.71 522.121 203.467 690.076 136.958 201.685 103.873 106.006 208.687 230.621 215.162 186.976 182.59 183.083 174.557 251.275 169.733 168.322 147.178 142.351
threshold=1.0000000180025095e-35 -0.34347427056317376 -0.34712590482832667 -0.34691917253481724 -0.1619863121660394 -0.15320295764516823 -0.15623920450517789 -0.31754697992639769 -0.31587407906171866 -0.3193129341200393 -0.32016717710636883 -0.32744658863481613 -0.32800427235507773 -0.33005468196840132 -0.32955758260838225 -0.31497570412886 -0.33730802213236483 -0.33801234475317216 -0.33697392891881173 -0.34028398522434344 -0.3408024667103457 -0.33974184212142017 -0.33771334067045017 -0.33760739694548114 -2.1753971605910958 1.0000000180025095e-35 -0.34394345492647799 1.0000000180025095e-35 0.2083496700569121 -0.25903995233955712 4.002781661408167 -0.34552314715621829 -0.3466984627034696 -0.34712590482832667 -2.4598749740183612 -2.4598749739988528 -2.4598749740249222 1.4867793763201067 -2.4598749739080512 -2.4598749739295687 -2.4598749737948107 -0.32311011012416579 1.4867793763201067 1.0000000180025095e-35 -2.4598749734331902 -0.31847210756608635 -0.30526258783837179 -0.32800427235507773 -0.32955758260838225 -2.4598749740363437 -0.31754697992639769 -0.30755394214875204 -2.4598749740287364 -2.4598749740295962 -0.33426241182496463 -2.4598749739678238 2.7859320645728913 -0.22427134799364837 -0.24723058612348045 -0.28859229487024268 -2.4598749739080512 1.0000000180025095e-35 -2.4598749740355781
decision_type=2 2 2 2 2 2 2 2 2 2 2 2 2 2 2 2 2 2 2 2 2 2 2 2 2 2 2 2 2 2 2 2 2 2 2 2 2 2 2 2 2 2 2 2 2 2 2 2 2 2 2 2 2 2 2 2 2 2 2 2 2 2 2
left_child=1 2 -1 -4 7 6 -6 9 -9 10 11 12 13 16 -15 -10 17 19 -18 20 -3 -21 -19 -24 31 -26 27 -27 29 30 -28 32 33 35 -35 36 -2 -38 39 -37 49 47 43 44 -43 -46 -47 48 -42 -33 54 60 53 -53 62 -54 59 58 -55 -57 -52 -59 -51
right_child=24 4 3 -5 5 -7 -8 8 15 -11 -12 -13 -14 14 -16 -17 18 22 -20 21 -22 -23 23 -25 25 26 28 -29 -30 -31 -32 40 -34 34 -36 38 37 -39 -40 -41 41 42 -44 -45 45 46 -48 -49 -50 50 51 52 55 57 -56 56 -58 61 -60 -61 -62 -63 -64
leaf_value=0.082518369162765837 0.063525322255795311 0.077575174405294239 -0.017831272196247121 0.06125564294579551 0.059628458895363695 0.073201387549031327 0.024333508831275594 0.11494645765454675 0.046917792521496221 0.050384198986370324 0.11356732948581381 0.066156757623749632 0.11279089215937642 0.028484796050112022 0.067141432513335861 0.077612464885340196 0.1103342278549462 0.029829965558824712 0.079555944946286206 0.11382965748726936 0.038909161546503958 0.077085380100371262 0.068292416369434991 0.038466041614880306 0.069446279239532199 0.19916964160710771 0.069833901221009173 0.078152625733904621 0.069500046238970645 0.07588947332399204 0.007782003960684525 0.075568090671085511 0.088580633863185765 -0.075714763462330179 0.040429734221024652 -0.076262669393215243 0.15890256782261197 0.078257040797201707 0.06544736666789204 0.090752145718604377 0.070189574453832185 0.11307381503778387 0.078328680516414131 0.085390785154132939 0.19047051649963603 0.65084827909032605 0.16256869702892235 0.024806721865539907 0.13721827550855029 0.10744286355473941 0.055751657590859274 0.066012665370242654 0.077471113783680531 0.0025490596231097316 0.079421581916493428 0.087426468280577568 -0.022265043864019687 -0.078672608039476455 0.11720964913285346 0.050549999981017127 -0.023256701146483347 0.025612228100484122 0.067168460604801777
leaf_weight=1513.2993621826172 322.5479560829699 3423.2762756347656 125.49167633056641 5216.7817096710205 706.11752319335938 68944.308737348765 322.16275024414062 847.55650520324707 371.21476936340332 761.22847175598145 502.38671875 5428.4994812011719 598.4659423828125 348.14822387695312 1485.9116516113281 41047.603511810303 459.6119384765625 295.2767333984375 7525.6714477539062 654.83120727539062 583.63510131835938 1949.50048828125 1627.9611206054688 397.2847900390625 89122.24476929009 80.17471918463707 10249.956754818559 108.48470509052277 31912.830993652344 25094.764329269528 90.859484657645226 12621.980845702812 2508.3909111022949 40.782841654494405 179.73587515763938 46.237125240266323 169.57186727412045 103.95908455550671 405.38508025743067 25.924874596297741 2966.7945442199707 381.52936031855643 2027.9139044880867 569.15270870923996 46.633934035897255 12.026744699105622 18.16546580940485 156.69332838058472 116.63765144348145 225.86605651304126 1975.7746473625302 11448.910435810685 9532.551060244441 102.31191423535347 7303.6208839416504 460.83232724666595 66.749496385455132 57.561969719827175 89.649542927742004 966.41503519657999 69.792697302997112 82.07239792495966 7667.0783862359822
leaf_count=12649 537 40224 3870 58893 7026 253822 3591 6171 3219 6902 3647 37189 3549 3526 10263 274336 3883 3542 63188 7332 7369 22078 2377 3631 90186 171 14046 130 33559 32415 203 11480 2775 209 370 271 343 87 640 44 3556 331 1704 642 42 68 166 407 157 288 3013 12563 12147 278 8946 546 189 254 75 1840 206 197 11028
internal_value=0.0724131 0.0742 0.0645015 0.0593979 0.0746808 0.0728394 0.0485705 0.0765671 0.0780915 0.0740928 0.0748067 0.0740208 0.0762271 0.0750601 0.0598035 0.0773374 0.0767142 0.0725898 0.0813275 0.0776083 0.0719432 0.0863243 0.0582918 0.0624415 0.0712311 0.0705514 0.0720096 0.129581 0.0718484 0.0739632 0.0692887 0.0729277 0.0808152 0.0657636 0.0189499 0.075379 0.0932274 0.128252 0.0531004 -0.016261 0.072419 0.0791636 0.0884488 0.108422 0.13702 0.255943 0.35707 0.0704077 0.0727251 0.0716129 0.0703664 0.0683548 0.069727 0.0648627 0.073656 0.0749239 0.0586715 0.0251574 0.0560977 0.0624567 0.053056 -0.0173775 0.068321
internal_weight=364565 145136 6855.57 5342.27 138281 69972.6 1028.28 68308.1 42266.4 26041.7 25280.5 24778.1 19349.6 18751.1 1834.06 41418.8 16917 8931.77 7985.28 6611.24 4006.91 2604.33 2320.52 2025.25 219429 156659 67537.1 188.659 67348.4 35435.6 10340.8 62769.3 3802.54 1294.14 220.519 1073.63 596.079 273.531 477.547 72.162 58966.7 6295.55 3055.42 1027.51 458.356 76.8261 30.1922 3240.13 3083.43 52671.2 40049.2 24852.6 22807.1 11780.5 15196.6 11026.5 1494 331.596 191.961 1427.25 2045.57 139.634 7892.94
internal_count=1088386 842277 75412 62763 766865 264439 10617 502426 283726 218700 211798 208151 170962 167413 13789 277555 153624 86553 67071 77003 47593 29410 9550 6008 246109 170710 80524 301 80223 46664 14249 75399 5276 2501 579 1922 967 430 955 315 70123 7073 2953 1249 607 276 234 4120 3713 63050 51570 31308 28089 13367 20262 14722 2575 804 353 2386 3219 451 11316
is_linear=0
shrinkage=0.05


Tree=10
num_leaves=64
num_cat=0
split_feature=2 2 2 0 1 1 0 2 2 0 0 1 0 1 0 0 0 0 0 0 0 0 0 0 0 0 2 0 0 1 1 0 2 0 0 2 0 0 0 3 0 0 0 0 0 0 0 0 0 0 0 0 0 0 0 3 1 0 3 0 1 0 0
split_gain=10887.8 1091.73 1097.5 3602.91 2098.33 1431.36 2046.13 1235.72 782.559 591.231 518.319 515.69 483.019 467.604 441.073 398.534 626.346 351.919 334.458 313.741 495.867 390.82 302.263 305.082 267.589 470.792 257.559 362.381 300.687 239.338 230.139 219.114 218.348 267.984 380.915 326.193 253.869 251.499 775.909 316.377 249.847 692.128 220.083 217.713 229.476 644.107 208.201 196.975 646.883 323.349 305.952 370.768 451.84 244.738 528.766 193.274 259.62 386.977 205.642 314.5 216.633 187.355 233.23
threshold=1.3086149627788575 0.85940127528270771 -0.48823978720574163 -0.30279060766805715 1.0000000180025095e-35 1.0000000180025095e-35 -0.30867601279559331 0.41018758778655784 1.7578286502750071 -0.3251058319944638 -0.28039938862069463 1.0000000180025095e-35 -0.32800427235507773 1.4867793763201067 2.7693541565770352 -0.26091881397773592 -0.264699592676721 -0.33224690096740467 -0.33052811971149926 -0.3417968207363597 -0.34106557006326549 -0.34203629754144987 -0.34028398522434344 -0.34002372246782292 -0.3002026540126474 -0.2975039471568835 -1.0000000180025095e-35 -0.30755394214875204 -0.30640863071408603 1.4867793763201067 1.0000000180025095e-35 5.6523484361031562 3.5546834002596062 -0.28859229487024268 -0.28368883432025277 2.2070423377711568 -0.34370937375158556 -0.32800427235507773 -0.32744658863481613 -2.459874974024657 -0.33760739694548114 -0.33496549199796416 -0.34442026431221584 0.33043321788864549 -0.25521866383019226 -0.25903995233955712 0.68158554544536021 -0.24519377830773056 -0.21764888074359431 -0.19150289424328812 -0.31087767539991035 -0.30279060766805715 -0.29601392158385553 -0.1786570560224858 -0.17336217431432563 -2.4560131101135059 1.4867793763201067 -0.29311624773338113 1.0000000180025095e-35 -0.061439399724165837 1.4867793763201067 1.1973705690136887 -0.22847315117377356
decision_type=2 2 2 2 2 2 2 2 2 2 2 2 2 2 2 2 2 2 2 2 2 2 2 2 2 2 2 2 2 2 2 2 2 2 2 2 2 2 2 2 2 2 2 2 2 2 2 2 2 2 2 2 2 2 2 2 2 2 2 2 2 2 2
left_child=1 2 3 4 12 6 -4 14 29 -3 32 15 17 -12 26 16 24 19 -19 21 -21 -1 -22 -24 -5 -26 -8 -28 -29 43 46 61 33 36 35 -35 42 -38 -39 -40 -34 -42 -10 44 45 -2 47 50 -49 -50 -11 -52 -53 -51 -55 56 57 -7 -57 60 -60 62 -9
right_child=8 9 5 11 -6 55 7 31 10 30 13 -13 -14 -15 -16 -17 -18 18 -20 20 22 -23 23 -25 25 -27 27 28 -30 -31 -32 -33 40 34 -36 -37 37 38 39 -41 41 -43 -44 -45 -46 -47 -48 48 49 53 51 52 -54 54 -56 58 -58 -59 59 -61 -62 -63 -64
leaf_value=0.031866697653528044 0.027589832932410033 0.077207905859803611 0.090937743305854912 0.09851992728817055 0.063830598653126083 0.082148763864766383 0.078853063967702253 0.066092953782382322 0.031204908861919567 -0.0076956770798116457 -0.010629801268479028 0.067743490355302388 0.052456037943742442 0.10140006526212014 0.058191997726271642 0.077441952820153218 -0.0185546325573967 -0.013709590837397501 0.032045893222798917 0.090895403197619684 0.0030445232377838034 -0.052565192218128977 0.10806306055647136 0.042968518733888489 0.0091842091278658555 0.067143215466458475 -0.060485668177410794 0.13801699499427517 0.07124894106702255 0.065572016830679536 0.055828163522229517 -0.013417115316211418 -0.056302225835604569 -0.05400067533431907 -0.054856233434457807 0.19118471035731888 -0.055791916452538226 0.28345919728749386 0.12584838174180876 -0.01434988720143838 0.23821868134576241 0.038791876287026905 0.17573063509005943 0.046136053842435874 0.0053166147305962813 0.21822836802504339 0.058686984689009951 -0.053711706656332653 0.088396364521046739 -0.053497369444283842 0.13258224086132428 -0.055758111437690529 0.063512197391422776 0.18546573014228002 0.026437402054371617 0.065037328315559834 0.066934066412929885 0.06807621634464564 0.080891632994992829 0.066230714554655887 0.069462593199999603 0.072143791575832561 0.045761204389966191
leaf_weight=4797.4030609130859 840.29616284370422 1933.7972183227539 18677.155951499939 572.99917602539062 21922.109758066013 9824.2193185687065 31209.127258300781 1992.9452247619629 96.387227058410645 181.59139156341553 3993.1979764848948 52429.387635376304 6532.4489300977439 95.367667093873024 3711.4425735473633 32846.098861072212 227.00547790527344 647.24244689941406 1042.954442024231 565.69661283493042 461.4818286895752 141.08863735198975 186.30864524841309 5313.7962617874146 382.61039733886719 4158.0670471191406 51.876213073730469 170.13982009887695 18913.242993311025 428.72232061624527 3650.9108662977815 118.50528717041016 34.791924923658371 16.860823154449463 33.756458435207605 69.400220394134521 178.8774850666523 25.237100750207901 44.434677720069885 426.28459215164185 57.451405137777328 179.25039606913924 36.247043877840042 940.88134728372097 1440.7060219049454 46.773751571774483 1035.376992225647 233.55837678909302 241.37436008453369 89.89109992980957 159.35906028747559 91.125212669372559 617.51645803451538 53.789361000061035 1850.7954753264785 59279.719794601202 18920.003760576248 9717.0531750302762 8009.7202618569136 26998.374624924734 8595.5298985987902 1341.5703926086426 4826.3692169189453
leaf_count=79630 9768 5271 59614 2805 28512 12384 104357 15815 1074 2096 58228 55348 57618 79 4202 108420 2109 10222 12831 8754 9031 3040 2907 68331 2699 23037 362 337 77156 514 5282 318 499 323 543 485 2986 98 74 6535 96 1929 170 2497 21910 388 1834 3637 3137 1476 1140 984 6931 603 20284 59396 18306 11391 11155 29002 7825 1635 38435
internal_value=0.0671748 0.0685144 0.0689769 0.0653697 0.0531899 0.071122 0.0764209 0.0720713 0.0128001 0.0523371 0.00046073 0.0709626 0.041342 -0.00801665 0.0748264 0.0753823 0.0627148 0.0358235 0.0145243 0.0389633 0.0461575 0.0294545 0.0419123 0.0451735 0.0663225 0.0622594 0.0760527 0.0714855 0.0718442 0.0304463 0.0464756 0.0540832 0.0293689 0.0178247 0.0875373 0.14326 0.007463 -0.00496616 0.0133653 -0.00111553 0.0688067 0.087196 0.0707017 0.0258391 0.0176351 0.0376419 0.0389783 0.0331795 0.0254673 0.0337384 0.0513243 0.0636716 0.0481751 0.0271236 0.0309287 0.068085 0.0711089 0.0751511 0.0669545 0.0695609 0.0749755 0.0550634 0.0517032
internal_weight=373708 364723 354584 132227 41610.5 222357 81012.4 62335.2 8984.92 10139.1 5287.54 90616.2 19688.4 4088.57 54055.8 38186.8 5340.68 13156 1690.2 11465.8 6527.28 4938.49 5961.59 5500.1 5113.68 4540.68 50344.4 19135.3 19083.4 3697.38 8205.29 8279.39 1198.98 927.486 120.018 86.261 807.468 674.834 495.956 470.719 271.494 236.702 132.634 3268.66 2327.78 887.07 4554.38 3519 2469.41 2235.85 1049.59 868.001 708.642 1994.48 1904.58 141345 38461.3 19541.3 102883 43603.6 16605.3 8160.88 6819.31
internal_count=1087855 979659 926984 475294 280876 451690 302231 242617 108196 52675 73119 194418 252364 58307 186414 139070 30650 194746 23053 171693 89023 82670 80269 71238 28541 25736 182212 77855 77493 35077 47404 56203 14812 12288 1351 808 10937 9693 6707 6609 2524 2025 1244 34563 32066 10156 42122 40288 29137 25500 11151 9055 7915 22363 20887 149459 42081 23775 107378 47982 18980 55885 54250
is_linear=0
shrinkage=0.05


Tree=11
num_leaves=64
num_cat=0
split_feature=2 2 2 0 0 4 0 0 2 0 0 4 2 0 0 0 0 0 2 4 0 0 0 0 2 0 0 3 3 3 4 0 0 3 0 2 4 0 3 2 0 0 3 3 0 0 0 0 0 0 0 0 3 0 0 0 0 0 0 0 0 0 0
split_gain=10268.2 1154.21 1102.36 3721.47 1400.78 852.658 827.063 785.13 731.933 709.582 559.261 416.536 408.905 288.908 287.444 281.6 236.189 352.117 227.18 528.624 218.685 213.295 205.11 266.284 235.106 249.283 202.351 201.422 211.194 193.825 189.818 187.345 298.789 185.776 244.658 178.089 174.803 173.781 210.372 163.512 160.395 155.564 228.437 150.619 149.716 281.29 328.79 387.999 534.12 241.659 219.43 222.17 213.171 193.114 180.303 203.982 163.573 149.169 281.064 269.293 161.322 149.08 173.181
threshold=1.3086149627788575 0.85940127528270771 -0.48823978720574163 -0.32094502959199728 -0.29458502644692103 1.0000000180025095e-35 -0.32630416288538117 -0.32450295423519221 -1.0000000180025095e-35 1.328048223519757 -0.25707644393459933 1.0000000180025095e-35 1.7578286502750071 0.68158554544536021 -0.27876342051907765 -0.12845936406847605 -0.3466984627034696 -0.34712590482832667 0.41018758778655784 1.0000000180025095e-35 -0.3466984627034696 1.4735370432344654 -0.34347427056317376 -0.3290535495880163 2.6562560252673069 -0.33307329909520217 -0.11448556359348565 -2.4598749740218122 -2.029441175770371 -2.4598749739706141 4.0966852354870946 -0.34573955851894045 -0.33801234475317216 -2.4598749740359191 -0.33496549199796416 1.7578286502750071 4.0966852354870946 -0.32094502959199728 -2.459874974028923 1.7578286502750071 -0.33350592643570892 -0.3466984627034696 -2.4598749738721017 1.0000000180025095e-35 0.14365336366598588 0.0067610353238240955 -0.096046846565709845 -0.22847315117377356 -0.2130248306740021 -0.27707360633262745 -0.22427134799364837 -0.22644702440127487 -0.88962976296460405 -0.21058290471497462 0.10398945984863132 0.021175348675004872 0.17450466033041298 -0.33005468196840132 -0.33224690096740467 -0.33307329909520217 -0.3224176608957155 -0.20832950017130544 -0.14728463767046482
decision_type=2 2 2 2 2 2 2 2 2 2 2 2 2 2 2 2 2 2 2 2 2 2 2 2 2 2 2 2 2 2 2 2 2 2 2 2 2 2 2 2 2 2 2 2 2 2 2 2 2 2 2 2 2 2 2 2 2 2 2 2 2 2 2
left_child=1 2 3 5 11 16 20 31 14 12 -5 37 -8 15 -6 -9 17 27 -10 44 -2 -16 29 24 35 40 -17 -1 -29 -22 43 -3 -33 34 -7 -24 -28 -4 -39 -11 -26 42 -35 -14 45 46 47 49 50 -20 51 -49 -47 -50 55 -54 -46 58 59 -18 -59 -55 -63
right_child=6 7 4 10 8 33 9 13 18 39 -12 -13 30 -15 21 26 57 -19 19 -21 22 -23 23 -25 25 -27 36 28 -30 -31 -32 32 -34 41 -36 -37 -38 38 -40 -41 -42 -43 -44 -45 56 52 -48 48 53 -51 -52 -53 54 61 -56 -57 -58 60 -60 -61 -62 62 -64
leaf_value=0.10249262501597911 -0.057471876174373417 0.10747265373381404 0.075711787426520738 0.057873364969376319 0.053482482952914329 0.053070877368308636 0.013339930340139776 0.04366110108061752 0.061061027283217786 0.063912026622935478 0.066737288271656078 0.064466336262467172 -0.0097540613085640247 0.057103146352702132 0.067870722112436943 -0.058322651062101799 0.040665354705882797 -0.036318023144923578 0.033547316274127513 0.069416109112097585 -0.071164669963430766 0.061005225973544686 0.027190454113538071 0.10182046692114566 0.085015769863266519 -0.056090696370509632 0.021948919090535118 -0.077926456738365568 0.030889883804288178 0.11198189377191044 0.087291985387761367 0.033360527381487461 0.080256691439180919 0.049067683338541265 -0.025544406589091764 -0.055501547615353912 0.083096802062375533 0.046746827300518247 0.070940130313674687 0.022794828189239114 0.26906513664074944 0.067349455054852181 -0.08343967484575264 -0.046960047376636574 0.09462446641854888 0.080222088319464951 0.069787861618331656 -0.062788467758408101 0.10800012172633747 0.065516239797240611 -0.063129314461206398 0.094248495636775925 -0.033226847902208735 -0.061851262465194928 -0.025020970062885228 0.035538670144237866 0.054271246718832815 0.052332874213902737 0.019359918891309603 0.068933704382444838 0.027153243372896287 0.046346679486031966 0.017367786545738985
leaf_weight=94.052045362070203 41.201171398162842 353.18797588348389 36438.773013114929 23066.309722900391 4278.3963317871094 444.38966223597527 2806.0348558798432 3784.6195578575134 48846.933540033177 501.90652157366276 77871.235862255096 15541.260210011154 3969.4254273204133 1888.3694877624512 70475.296295166016 75.288244247436523 16624.915867328644 222.19897937774658 817.37860488891602 4651.8720524758101 15.457378000020979 13476.200927734375 186.89233663678169 153.76285791397095 118.74731540679932 30.105951074510813 2487.4601838290691 46.591502413153648 1037.7386085968465 220.81347361207008 48.383851304650307 466.84246015548706 1246.6250128746033 165.2286436650902 127.32002835720778 99.921665634959936 122.63838715851307 952.22824044525623 15936.637431692332 466.55350802838802 13.148265838623045 4989.5534183364362 40.497841378673911 292.02708377037197 261.8884105682373 150.5322118550539 1582.9974362403154 38.154376983642578 95.1430983543396 2135.6658577919006 198.32333898544312 54.974544525146484 124.4904869645834 38.796446323394775 209.26255416870117 806.43229347467422 6112.0694732666016 5347.8058471679688 1473.4159231185913 887.46249485015869 721.99156046845019 1592.624698638916 762.33747386932373
leaf_count=110 655 782 66350 80108 10153 551 31524 27017 106860 699 152685 17828 64378 2795 133063 1301 159430 6704 4132 4721 84 14265 1820 869 967 374 16277 215 9928 1573 28 1934 2760 427 343 1933 71 1219 35486 1532 43 6016 218 1963 793 101 9087 387 464 10330 2085 407 880 439 1217 3679 10462 34087 13941 5857 4707 10304 6747
internal_value=0.0618359 0.0631198 0.0635964 0.0599889 0.0657259 0.0451951 0.00896133 0.0467194 0.0631139 0.00395049 0.0647117 0.0716694 -0.00151433 0.0398964 0.0661244 0.0348744 0.0413977 0.0214159 0.0592353 0.0546927 0.054992 0.0667686 0.0605158 0.0450341 0.0255792 0.0737306 0.022491 0.0323024 0.0262143 0.1 -0.0111856 0.0743144 0.0674796 0.0626156 0.0355632 -0.00161819 0.024822 0.0737686 0.0695761 0.0441039 0.103363 0.0655926 0.0229832 -0.0123037 0.0501208 0.0458195 0.049616 0.0440465 0.0306416 0.0566675 -0.0333996 0.0299114 0.024299 0.0381409 0.0169158 0.0263428 0.0559292 0.0425147 0.0403333 0.0420979 0.0493378 0.0353642 0.0369658
internal_weight=378129 369164 358739 133161 225579 32223.2 8964.38 10425 156710 8084.33 100938 68868.9 7115.87 8358.38 88229.9 6470.01 26456.2 1400.58 68479.9 19632.9 880.05 83951.5 838.849 602.578 448.816 162.002 2685.39 1178.38 1084.33 236.271 4309.84 2066.66 1713.47 5766.99 571.71 286.814 2610.1 53327.6 16888.9 968.46 131.896 5195.28 205.726 4261.45 14981.1 8607.11 7316.4 5733.4 2780.35 2953.04 291.452 93.1289 1290.72 2488.9 1140.19 930.923 6373.96 25055.6 18985.8 17512.4 6069.8 2393.76 2354.96
internal_count=1088165 979723 926786 475327 451459 242534 108442 52937 330576 100124 232793 120883 97893 47461 157481 44666 234979 16957 173095 66235 8318 147328 7663 6006 5137 1384 17649 10253 10143 1657 66369 5476 4694 7555 894 3753 16348 103055 36705 2231 1010 6661 645 66341 61514 50259 44382 35295 20833 14462 2879 794 5877 17954 5776 4559 11255 218022 179228 165287 38794 17490 17051
is_linear=0
shrinkage=0.05


Tree=12
num_leaves=64
num_cat=0
split_feature=2 2 2 0 0 3 2 0 0 0 4 3 0 0 0 0 2 4 0 0 0 0 0 3 3 0 4 2 4 2 2 2 0 0 0 4 0 3 0 0 2 2 0 3 0 0 0 0 0 4 0 0 4 0 0 2 0 0 2 2 0 0 0
split_gain=8372.63 1054.34 849.927 2948.28 989.835 922.476 852.562 655.058 484.333 433.439 413.979 359.904 324.382 391.691 340.848 574.738 348.605 295.31 279.934 240.015 238.48 240.415 253.328 268.737 267.911 239.776 341.441 227.2 223.528 218.708 214.509 410.377 211.742 598.651 424.328 263.285 257.758 206.344 188.192 205.756 186.341 263.694 304.737 197.509 182.27 177.293 293.651 175.683 173.614 230.71 194.569 217.928 172.705 168.164 336.754 498.185 183.706 272.826 302.235 179.987 167.571 157.348 150.978
threshold=1.3086149627788575 0.85940127528270771 -0.48823978720574163 -0.32094502959199728 -0.31587407906171866 -0.00052541477783383725 0.41018758778655784 -0.34347427056317376 1.623621031117104 -0.32450295423519221 1.0000000180025095e-35 -2.4598749740366057 -0.25521866383019226 -0.25903995233955712 -0.26824299871609703 -0.27005636131137395 2.2070423377711568 1.0000000180025095e-35 -0.25707644393459933 0.98325671272253246 -0.13459592400852199 -0.22427134799364837 -0.25123177406160163 2.4598749739072572 2.4598749739072572 -0.3166974662575302 1.0000000180025095e-35 2.6562560252673069 1.0000000180025095e-35 2.2070423377711568 2.6562560252673069 4.902324462748056 0.15807098854136417 -0.0067184212197533982 0.27406319051154243 1.0000000180025095e-35 -0.019966416750549321 1.0000000180025095e-35 0.081984782345871185 0.89728986518717135 3.5546834002596062 4.0038970877557567 -0.29876891934110666 -2.4598749739883323 2.7693541565770352 -0.31087767539991035 -0.33496549199796416 -0.34573955851894045 0.3973163025595457 4.0966852354870946 0.56730196471433603 0.75059584103964094 1.0000000180025095e-35 -0.2130248306740021 -0.21058290471497462 3.1054697127634565 0.021175348675004872 -0.0067184212197533982 6.6991792127326546 3.5546834002596062 -0.32170305301140217 0.19022814294065857 0.25022192465529114
decision_type=2 2 2 2 2 2 2 2 2 2 2 2 2 2 2 2 2 2 2 2 2 2 2 2 2 2 2 2 2 2 2 2 2 2 2 2 2 2 2 2 2 2 2 2 2 2 2 2 2 2 2 2 2 2 2 2 2 2 2 2 2 2 2
left_child=1 2 3 5 17 -1 44 47 12 -3 11 -8 13 14 15 37 -17 -4 -5 20 21 22 24 -24 25 26 -11 -15 60 32 -10 -32 33 35 -34 36 -14 40 52 -40 -9 42 45 -43 -6 46 -42 -2 49 -36 -50 -52 -22 -31 55 -55 57 58 -56 -59 -7 -58 -13
right_child=7 9 4 18 6 28 10 8 30 19 -12 62 29 27 -16 16 -18 -19 -20 -21 38 -23 23 -25 -26 -27 -28 -29 -30 53 31 -33 34 -35 48 -37 -38 -39 39 -41 41 43 -44 -45 -46 -47 -48 -49 50 -51 51 -53 -54 54 56 -57 61 59 -60 -61 -62 -63 -64
leaf_value=0.055999804027358213 0.025390823159717198 0.064242273045055961 0.069258108089754342 0.055617645437808096 0.061145976922007052 0.037639483576120909 -0.090634987935353656 0.013257082987787383 0.058022281739665539 -0.0626461470518343 0.062749915886889315 0.043289618832462101 -0.0027523491167154635 0.15087934435605985 -0.05467602359116476 0.24935489449362302 -0.053265072658096803 0.06032387409504545 0.061803821060121555 0.056416815989154614 0.001336832878395234 0.05906662584293898 -0.019989134953955073 0.068730387547555657 -0.078436491656395158 0.049777247921443224 0.071039773122059058 -0.053646229715528196 0.067616171425838464 -0.053369371749140394 -0.069672398152937381 0.10929895377973889 0.066797923948435062 -0.055786446809466456 -0.062758717533338657 0.060077460418674761 0.11067396288833289 -0.067193798487719822 0.037024631974121223 -0.077015553795314537 0.17551767419557585 0.15666995912188414 -0.054027414565420755 -0.01686987387711562 0.05433888237765562 0.21910337369877464 -0.055375382125979047 0.10466282390578754 0.04896595624356713 0.11211084804005667 -0.065778175056620397 0.012851099139262821 0.049677495233136727 -0.0535271520506055 -0.0089371463294524913 0.51121244822110412 -0.054607733862205576 0.12194885100390594 0.20902119988925238 -0.053815613181220481 0.0010480437578238141 -0.013003494635743316 0.053313782094302965
leaf_weight=10085.929474350065 101.92958498001099 2004.463499546051 40355.258992187679 23747.188293457031 144458.29169003014 22649.873570501804 47.824199289083481 1610.9050564896315 622.60584317147732 117.39871329069138 4984.3440348058939 10959.334237217903 1366.4445894360542 82.338889580219984 161.27530288696289 42.179544568061829 12.289190173149107 11999.391726501286 79540.128273487091 1523.8885154724121 1072.4417895972729 1433.8880844116211 366.89811387658119 111.23204359412193 45.773208543658257 1766.3683393597603 80.521187379956245 16.260016459971666 617.59699711203575 252.7490930557251 95.63676992058754 48.158918127417564 364.19361686706543 450.08424735441804 154.74575787782669 220.99666905403137 51.992776334285736 71.120567759498954 1805.082592010498 40.438922882080078 36.450425915420055 19.244951151311398 23.221971098333597 110.73953361809254 10552.374328613281 46.429455697536469 22.131523720920086 222.36851644515991 258.59269714355469 21.479694545269012 112.29935073852539 409.31192207336426 223.22266329824924 8.0302973315119726 777.16429779678583 7.6019000485539427 329.51655006408691 72.956877581775188 16.237435601651669 18.198515757918358 317.26385984197259 732.35358238220215 5715.136566773057
leaf_count=14409 1217 5380 74176 80223 280127 224926 194 20407 1047 1250 5244 57898 27412 802 2843 316 246 13785 152713 1984 12435 10860 3728 136 207 10064 83 327 953 5462 480 78 1816 6226 1104 539 801 435 5985 186 137 22 381 1497 11466 166 331 1129 894 3 667 1437 373 185 18330 109 4634 975 153 341 2353 5012 9021
internal_value=0.0577219 0.058859 0.059309 0.056193 0.061172 0.0433443 0.059383 0.00998131 0.00736449 0.043307 0.0501023 0.0463325 0.00367375 0.0196979 0.0152411 0.020894 0.181078 0.0672104 0.0603815 0.0384202 0.0345374 0.0427595 0.0333621 0.000650546 0.0411432 0.0439297 -0.00825774 0.117151 0.0379322 -0.00274901 0.0453098 -0.00973272 0.00519655 -0.00470844 0.0208684 0.00931433 0.00140529 0.0163971 0.0242714 0.0345258 0.0195778 0.0590096 0.109881 0.0088237 0.0606826 0.146127 0.0882892 0.079747 0.0033792 -0.0414443 0.0135035 -0.00407725 0.00966517 -0.0149828 -0.0100379 0.221104 -0.0118943 0.00493578 -0.0044765 0.0868587 0.037134 -0.025914 0.0467254
internal_weight=385592 376622 366030 136958 229072 33670.7 176717 8970.24 8645.94 10591.6 21706.6 16722.3 7879.54 2254.59 2155.99 1994.71 54.4687 52354.7 103287 8587.15 7063.27 3922.08 2488.19 478.13 2010.06 1964.29 197.92 98.5989 23584.7 5624.95 766.402 143.796 3410.14 2089.52 1320.62 1639.43 1418.44 1940.24 3141.19 1845.52 1869.12 258.218 128.233 129.984 155011 105.011 58.5819 324.298 956.429 176.225 780.204 521.611 1295.66 2214.81 1962.06 15.6322 1946.43 884.557 793.402 91.1554 22967.1 1061.87 16674.5
internal_count=1088120 980159 927488 475577 451911 242641 363950 107961 105615 52671 72357 67113 104010 27910 26781 23938 562 87961 232936 47291 45307 26328 15468 3864 11604 11397 1333 1129 228232 76100 1605 558 40899 34978 5921 28752 28213 23376 18979 6171 22941 2534 1015 1519 291593 634 468 2346 4105 1107 2998 2104 12808 35201 29739 294 29445 19799 18483 1316 227279 9646 66919
is_linear=0
shrinkage=0.05


Tree=13
num_leaves=64
num_cat=0
split_feature=2 2 2 0 1 0 1 0 2 0 1 0 0 0 1 0 0 0 0 0 0 1 0 0 0 0 0 0 0 0 0 0 0 1 0 0 0 0 0 0 0 1 0 0 0 0 0 0 0 0 0 0 0 2 2 0 2 2 2 2 0 2 2
split_gain=6728.23 783.257 911.504 2621.17 1747.78 722.714 1293.37 580.798 502.367 426.226 360.794 419.643 357.483 368.923 365.27 253.99 243.663 313.065 587.411 481.493 409.022 234.838 306.811 331.386 314.64 292.183 247.108 240.701 238.509 228.645 595.802 279.704 220.675 202.494 194.171 281.003 191.984 189.448 188.625 178.548 176.401 173.795 171.612 166.383 269.75 202.622 164.556 333.391 151.071 350.058 378.84 228.894 451.678 233.946 679.386 223.083 353.833 223.563 211.962 197.236 230.874 779.083 195.139
threshold=1.3086149627788575 0.85940127528270771 -0.48823978720574163 -0.32311011012416579 1.0000000180025095e-35 -0.31587407906171866 1.0000000180025095e-35 -0.3290535495880163 1.0000000180025095e-35 -0.1441050433946261 1.0000000180025095e-35 0.98325671272253246 -0.34347427056317376 1.328048223519757 1.4867793763201067 -0.34277984243599735 -0.3422879483311087 -0.34156350607160674 -0.34106557006326549 -0.34028398522434344 -0.34002372246782292 1.0000000180025095e-35 -0.29311624773338113 -0.31587407906171866 -0.28859229487024268 -0.30867601279559331 -0.31754697992639769 -0.3002026540126474 -0.2975039471568835 -0.34508858099594691 -0.34530451642100074 -0.34616959575655748 -0.30147931923390076 1.0000000180025095e-35 -0.28368883432025277 -0.27876342051907765 -0.3466984627034696 0.82148995303372119 -0.32379598139305271 -0.34712590482832667 -0.3193129341200393 1.0000000180025095e-35 -0.34203629754144987 -0.31297229210781591 -0.3119512054144527 -0.31398354943586076 -0.32570324899522518 -0.3251058319944638 0.12963224997689385 -0.25521866383019226 -0.25903995233955712 -0.2130248306740021 -0.2011416239811524 3.1054697127634565 3.5546834002596062 0.25022192465529114 1.7578286502750071 4.902324462748056 3.5546834002596062 2.2070423377711568 -0.20580102870469583 1.7578286502750071 6.6991792127326546
decision_type=2 2 2 2 2 2 2 2 2 2 2 2 2 2 2 2 2 2 2 2 2 2 2 2 2 2 2 2 2 2 2 2 2 2 2 2 2 2 2 2 2 2 2 2 2 2 2 2 2 2 2 2 2 2 2 2 2 2 2 2 2 2 2
left_child=1 2 3 4 15 6 -4 -3 33 21 11 37 -2 14 48 29 -17 42 -19 -20 -21 22 23 26 -24 43 40 32 -29 30 31 36 -27 -7 -26 -36 39 46 -22 -1 -5 -11 -18 45 -45 -25 -9 -48 49 50 -14 -51 53 59 -55 58 -57 -58 -50 60 -53 -62 -54
right_child=12 7 5 9 -6 8 -8 10 -10 41 -12 -13 13 -15 -16 16 17 18 19 20 38 -23 24 25 34 27 -28 28 -30 -31 -32 -33 -34 -35 35 -37 -38 -39 -40 -41 -42 -43 -44 44 -46 -47 47 -49 55 51 -52 52 62 54 -56 56 57 -59 -60 -61 61 -63 -64
leaf_value=0.026895630112817738 0.06281905207358475 0.066700249332326919 0.073108005579129165 0.055637457342939005 0.051926281758680297 0.06121089668404827 0.056790782166340717 -0.060043335860127625 0.053022944354972762 0.06193634172317139 0.047924260282720954 0.057888588600643054 0.010098518501329279 0.039154675302840412 0.052630346210120187 0.070023555008613292 0.030099247611776403 0.088810673317467184 -0.017871359601176473 0.099789384805115608 0.032420866970484429 0.055753545330353121 0.079972855252545175 0.0094482072767833117 0.023491223072436927 0.044090145908376746 0.088964879969609778 -0.0072800590121390859 0.040240033700005333 0.0050238323763275314 0.10825272413133438 -0.0053693281514239875 0.088195416816412325 0.056593636668632458 0.082361919265029726 0.050235256885538107 0.049859623799202196 -0.070288742042496841 -0.015127145651788404 -0.027869941390192905 0.018400074974435725 0.056563323607500375 -0.02783590641154228 -0.056456363465067862 0.014094034962382547 0.061356644657848347 0.17318435063598808 0.021699475386847078 0.052208826777815687 -0.039368672283772714 0.10779122925606664 0.019920804763238629 -0.011632744220775679 0.38693151146103832 -0.053838114479923344 0.031690985424626901 -0.024917687701228219 0.071714073936991182 -0.055463633967218179 -0.053341208280007761 -0.054852075430269043 0.40728023593772034 0.1374977666702949
leaf_weight=825.95094299316406 330.65776109695435 1939.4685115814209 19013.238685937598 1450.5433349609375 15688.221431350335 38476.962243732996 33615.158187536523 60.401145458221436 78483.378173828125 26847.510688103735 3866.4989684745669 926.10669231414795 2091.7323184013367 957.79897308349609 403.21023012697697 417.07962322235107 205.57504272460938 451.36183452606201 489.31299877166748 223.56049633026123 9753.6778364181519 25276.45591326803 997.1264533996582 452.04098510742188 619.36534881591797 1579.1082458496094 444.73574829101562 413.72030639648438 729.91107749938965 1841.8134641647339 212.32723999023438 717.349365234375 345.68911743164062 62021.198678843677 725.29888534545898 11054.807951249182 797.86343383789062 56.577912330627441 213.13913288153708 181.53749084472656 407.35523986816406 34250.140598975122 337.94792461395264 174.51309204101562 605.89237976074219 321.84762573242188 36.664703845977783 3871.6753778830171 503.46621534973383 588.4526322633028 104.17914904654026 56.93368673324585 2412.1333074830472 19.479131639003754 15.861078508198259 685.96272660791874 743.16762590408325 65.097896084189415 50.271478556096554 37.157307803630829 17.868169344961643 18.62730598449707 22.136934146285057
leaf_count=9660 2398 4637 51658 10911 21276 110433 36224 445 189827 61685 5406 1234 26679 2203 577 6153 3195 5861 9071 2889 108111 27734 3677 3772 3592 9054 3632 2756 3967 30872 3024 12113 1378 63494 3381 57088 7940 276 2273 6417 4137 34889 5940 1723 5006 1827 84 40376 3622 12294 1092 1092 47537 241 348 2386 5274 313 598 884 399 286 183
internal_value=0.0542128 0.0552278 0.0556138 0.0524138 0.0399481 0.057535 0.0626858 0.0419277 0.0560205 0.0561942 0.0364791 0.0275417 0.0117812 0.00986201 0.00628143 0.0286743 0.0324715 0.03113 0.0329393 0.0305779 0.0329043 0.0525362 0.0485344 0.0399896 0.0529516 0.0322703 0.0554868 0.0412169 0.0230492 0.0186422 0.0278131 0.0210427 0.0520113 0.0583614 0.0507786 0.0522133 0.0315375 0.0205598 0.0314041 0.0170275 0.0474729 0.0589243 -0.00592327 0.0146083 -0.00168234 0.0310361 0.0218549 0.0231206 0.00376703 -0.000629172 0.0147333 -0.0112088 -0.00483587 0.0749833 0.189109 0.0153256 0.00527982 -0.0171349 0.0424337 0.0440978 0.0828499 0.18102 -0.0102766
internal_weight=390544 381420 370663 139053 32356.7 231610 52628.4 10757.4 178982 106696 8817.92 4951.43 9124.19 8793.54 7835.74 16668.5 12091.7 11674.6 11131.1 10679.7 10190.4 45598.4 20322 6925.36 13396.6 4622.72 2302.63 3068.43 1143.63 4576.84 2735.03 2522.7 1924.8 100498 12399.5 11780.1 1805.35 4025.32 9966.82 1007.49 1857.9 61097.7 543.523 1554.29 780.405 773.889 3968.74 3908.34 7432.53 5384.56 2195.91 3188.65 2600.2 165.927 35.3402 2047.97 1494.23 808.266 553.738 130.586 93.4292 36.4955 2434.27
internal_count=1087504 979098 926640 475004 234795 451636 87882 52458 363754 240209 47821 42415 108406 106008 103805 213519 143493 137340 128205 122344 113273 143635 115901 48163 67738 29483 18680 17155 6723 70026 39154 36130 10432 173927 64061 60469 24017 41181 110384 16077 15048 96574 9135 12328 6729 5599 40905 40460 103228 91035 27771 63264 50970 3250 589 12193 7973 5587 4220 2661 1777 685 47720
is_linear=0
shrinkage=0.05


Tree=14
num_leaves=64
num_cat=0
split_feature=2 2 2 0 1 1 0 2 1 1 0 0 0 2 1 0 0 0 0 0 0 0 0 0 0 0 1 0 0 1 0 0 0 0 0 2 2 0 0 0 0 0 0 0 0 0 1 0 0 0 0 0 0 2 2 0 0 0 0 0 1 2 0
split_gain=6876.22 771.719 597.172 2516.34 1380.39 562.688 538.239 538.979 725.341 491.049 448.003 393.566 326.49 368.854 243.504 370.002 238.303 211.397 220.727 659.152 298.31 220.273 219.442 200.933 187.499 184.093 217.851 182.653 171.573 170.888 165.243 163.38 243.681 175.24 284.597 525.349 172.303 169.322 249.196 160.727 154.183 161.578 331.448 207.976 157.98 148.556 195.367 155.08 157.691 140.945 137.836 184.221 421.718 239.818 318.191 647.803 430.04 173.867 150.314 158.742 182.521 335.983 520.087
